{"classifier":{"brain":{"layers":[{"0":{},"1":{},"2":{},"3":{},"4":{},"5":{},"6":{},"7":{},"8":{},"9":{},"10":{},"11":{},"12":{},"13":{},"14":{},"15":{},"16":{},"17":{},"18":{},"19":{},"20":{},"21":{},"22":{},"23":{},"24":{},"25":{},"26":{},"27":{},"28":{},"29":{},"30":{},"31":{},"32":{},"33":{},"34":{},"35":{},"36":{},"37":{},"38":{},"39":{},"40":{},"41":{},"42":{},"43":{},"44":{},"45":{},"46":{},"47":{},"48":{},"49":{},"50":{},"51":{},"52":{},"53":{},"54":{},"55":{},"56":{},"57":{},"58":{},"59":{},"60":{},"61":{},"62":{},"63":{},"64":{},"65":{},"66":{},"67":{},"68":{},"69":{},"70":{},"71":{},"72":{},"73":{},"74":{},"75":{},"76":{},"77":{},"78":{},"79":{},"80":{},"81":{},"82":{},"83":{},"84":{},"85":{},"86":{},"87":{},"88":{},"89":{},"90":{},"91":{},"92":{},"93":{},"94":{},"95":{},"96":{},"97":{},"98":{},"99":{},"100":{},"101":{},"102":{},"103":{},"104":{},"105":{},"106":{},"107":{},"108":{},"109":{},"110":{},"111":{},"112":{},"113":{},"114":{},"115":{},"116":{},"117":{},"118":{},"119":{},"120":{},"121":{},"122":{},"123":{},"124":{},"125":{},"126":{},"127":{},"128":{},"129":{},"130":{},"131":{},"132":{},"133":{},"134":{},"135":{},"136":{},"137":{},"138":{},"139":{},"140":{},"141":{},"142":{},"143":{},"144":{},"145":{},"146":{},"147":{},"148":{},"149":{},"150":{},"151":{},"152":{},"153":{},"154":{},"155":{},"156":{},"157":{},"158":{},"159":{},"160":{},"161":{},"162":{},"163":{},"164":{},"165":{},"166":{},"167":{},"168":{},"169":{},"170":{},"171":{},"172":{},"173":{},"174":{},"175":{},"176":{},"177":{},"178":{},"179":{},"180":{},"181":{},"182":{},"183":{},"184":{},"185":{},"186":{},"187":{},"188":{},"189":{},"190":{},"191":{},"192":{},"193":{},"194":{},"195":{},"196":{}},{"0":{"bias":-0.10981596779991712,"weights":{"0":0.16210046375611964,"1":-0.047209334539877024,"2":0.16277403317731864,"3":-0.011602141559275447,"4":0.15714669685810512,"5":0.18793063378483688,"6":-0.11330798765043848,"7":0.1260476022645941,"8":-0.059666195168068925,"9":0.16126585002548627,"10":0.14394616460191612,"11":0.15479505539953708,"12":-0.18279922683989508,"13":-0.16522740019329343,"14":0.03577851729825443,"15":-0.11985046055160689,"16":-0.19792575943618135,"17":-0.17366520346594755,"18":0.13067432539941026,"19":0.16371734962960988,"20":0.22289743945293738,"21":-0.06836815265736873,"22":-0.11170016103477874,"23":0.1999483220282996,"24":0.19349519391051362,"25":0.03614414701971212,"26":0.029679983291497094,"27":-0.053673602575240204,"28":0.040769383915289885,"29":0.10250891545395528,"30":-0.005871011841026812,"31":0.024631274476046155,"32":-0.0012332711375808128,"33":0.10063482213438356,"34":-0.10482403978460535,"35":0.0643475412906273,"36":0.08018988501967694,"37":-0.154570329367358,"38":-0.009829215408138438,"39":0.05842008199245246,"40":0.034746623379949784,"41":-0.02852888700557576,"42":-0.006673783401419833,"43":-0.24423321298074271,"44":0.09382991342772395,"45":-0.17703590113733123,"46":0.0547779925336018,"47":-0.13537101022754652,"48":-0.13061365441450784,"49":0.018031155746562295,"50":0.0325252871499586,"51":-0.06063505315480526,"52":0.10661288740324787,"53":-0.22309546792374366,"54":0.02230405075696527,"55":0.1276503644580518,"56":-0.02280551669897014,"57":0.13459846278574822,"58":0.05493157327516618,"59":-0.11147814341887229,"60":-0.07016137935614981,"61":-0.11127001736988447,"62":-0.02845916221599955,"63":-0.0008230324413936622,"64":-0.18151548295028982,"65":-0.13027815644330415,"66":-0.14069697987927807,"67":-0.07353602016478422,"68":0.025452785224200088,"69":0.13589749388542938,"70":0.10660686401229875,"71":0.03140325047677572,"72":0.13015019902474512,"73":0.0670494510238533,"74":-0.0818884426267054,"75":0.12509593544080191,"76":-0.09034497993104496,"77":-0.15886099097967715,"78":-0.06689567932729693,"79":-0.12635934659908296,"80":0.17527369593327854,"81":-0.1427737300453883,"82":-0.016513339410598543,"83":0.1869599759174939,"84":-0.021381976092888107,"85":-0.02077758815375177,"86":0.11219590754743924,"87":-0.04744420698559871,"88":0.007789299250774546,"89":-0.06839403037988495,"90":-0.12081003064005055,"91":0.18627698013509117,"92":-0.1898911885526202,"93":-0.0221715428910475,"94":-0.18218246437404048,"95":-0.17461395958691503,"96":-0.19230799091969897,"97":-0.1349924606358962,"98":-0.07902160740098856,"99":0.15624026645592992,"100":-0.02875154146392355,"101":0.06953101025568022,"102":-0.18025640506200397,"103":0.08942511265155707,"104":-0.03530021352456068,"105":-0.16334059094518155,"106":0.19091137809488323,"107":-0.13293548700249513,"108":0.0797673517473634,"109":-0.029341697980652164,"110":0.10954828470268864,"111":0.002091240044197992,"112":-0.16256859773420942,"113":0.01391404472213679,"114":-0.12558150488631883,"115":-0.1913008175971922,"116":-0.0723952187338937,"117":-0.18345217745507067,"118":-0.0550081518029696,"119":0.06685314767043034,"120":0.1031376928517025,"121":0.19780682540561847,"122":-0.1104374536974876,"123":0.007706308597073531,"124":0.14581661990945252,"125":0.04200801674041106,"126":0.1251985041877056,"127":-0.16254094421898718,"128":-0.1287266440602104,"129":-0.08242110590945782,"130":-0.1976861837337993,"131":0.016876365698392334,"132":0.007385582009297995,"133":0.18036460759334688,"134":-0.06040054438168184,"135":-0.09590556680778609,"136":-0.09833817420861682,"137":0.08899605994897523,"138":-0.04173241576776783,"139":-0.09010079787062547,"140":0.0409405097326498,"141":0.0636478658982547,"142":0.1526926346003447,"143":-0.11613583500379213,"144":-0.028455238955097526,"145":0.15518118669454445,"146":0.07216358976564845,"147":0.11935961301020429,"148":0.10534024705734366,"149":0.05014047939553877,"150":-0.1604773755139081,"151":0.05547141566850043,"152":-0.004855200043764131,"153":0.067497900698795,"154":-0.11108881003560385,"155":0.05525492794793967,"156":0.09973536343905057,"157":-0.0556175221342609,"158":-0.16919826006814642,"159":0.011292467543650242,"160":-0.0608920972978798,"161":0.0030587937624576246,"162":-0.02031848621060282,"163":0.17236779850206088,"164":-0.06051908713806786,"165":0.10598109200978348,"166":0.10017069912669015,"167":-0.19730037987515237,"168":0.08101452417259859,"169":-0.186433819269744,"170":-0.12654155496756148,"171":0.12632725370651604,"172":0.11318708728360645,"173":-0.18177267936016567,"174":0.09616261823707331,"175":0.05508050383013008,"176":0.09904678438584749,"177":0.134240268739453,"178":-0.07295918942336414,"179":-0.1152839494785185,"180":0.16717160500804706,"181":-0.07410348591317936,"182":0.09565230635800356,"183":0.08636941824901237,"184":0.03460340985235466,"185":0.1213849867471202,"186":0.0021721836189149933,"187":-0.015311387024220685,"188":-0.017214289475935503,"189":-0.11514451936864094,"190":-0.0881484888003771,"191":-0.1326082400451507,"192":-0.13026694543223385,"193":-0.049335133829862425,"194":0.12418784034748023,"195":-0.12054542977830988,"196":0.07687242888110482}},"1":{"bias":0.027797404177311063,"weights":{"0":0.012606723095807395,"1":-0.14834890870697431,"2":-0.01726155584537439,"3":0.04355539062938716,"4":-0.02963559908936398,"5":0.1394746313534424,"6":-0.12059367102828686,"7":0.02817338676877397,"8":-0.17413790021807563,"9":-0.0875135786094108,"10":-0.010347853728719115,"11":-0.06374533636259784,"12":0.09987325829410318,"13":0.1409833802258811,"14":0.16499962591680917,"15":0.08146621056266204,"16":-0.1429910344312804,"17":-0.21569244213598004,"18":-0.053356719058100736,"19":-0.1541002350682567,"20":-0.11068759515245385,"21":-0.009389420577145143,"22":-0.0850781669448402,"23":-0.1450344195645404,"24":-0.0337398654961706,"25":-0.16770799208927636,"26":-0.2155003675591147,"27":0.002490929393562039,"28":-0.2195013599135259,"29":-0.12801007290384298,"30":-0.2519320232250624,"31":0.173131259979094,"32":0.12585455761832462,"33":-0.034502086514810015,"34":-0.07397806094278121,"35":-0.09290922009416669,"36":-0.07261592481581809,"37":0.13486477143117923,"38":0.05696009336259363,"39":0.1103322698923038,"40":0.22992722379130434,"41":-0.000281120054616687,"42":0.020494631981148256,"43":-0.01659165372855718,"44":-0.09495850416312412,"45":0.08070513491573539,"46":0.1242316641878223,"47":-0.12494127828719713,"48":0.2401861481792841,"49":0.0985037696534157,"50":0.10646917692060638,"51":0.07203416999026177,"52":0.17442005536564928,"53":-0.02254521188032537,"54":0.11295225301302916,"55":-0.07525942715392411,"56":-0.06562514356929813,"57":0.14261679519082396,"58":0.16856158859163659,"59":-0.005588342488591496,"60":0.12100458261062204,"61":-0.09590724488520273,"62":-0.11258596429916427,"63":0.08576250214367022,"64":-0.0008797949631692411,"65":0.16872721394690574,"66":-0.16949043798922045,"67":-0.17349689256668666,"68":0.1093860372611561,"69":-0.1499724182275602,"70":-0.19668184495015492,"71":-0.1602293462474591,"72":0.12340490877296396,"73":-0.12433182285013245,"74":0.08765684642539669,"75":-0.13894616737783738,"76":-0.19834014975294523,"77":-0.039128987137168975,"78":-0.12669599819791905,"79":0.09430881000051503,"80":0.20317028807924786,"81":-0.17725284541010566,"82":-0.06650872415784628,"83":0.011327383865223284,"84":0.019853155330363574,"85":-0.11535192062552362,"86":0.042496082342331626,"87":0.0050128208943463525,"88":0.07376089109723645,"89":-0.015775942547230734,"90":0.13644471899988891,"91":-0.0926371300498781,"92":0.15664747845528315,"93":-0.09565735776356687,"94":-0.17853028646019897,"95":-0.15311179723200974,"96":0.14954277164906743,"97":-0.03463851038187349,"98":-0.12758676793658108,"99":0.0720960183959306,"100":-0.04319211038058407,"101":0.08201695363592626,"102":0.02036018141335617,"103":0.12626268400692114,"104":0.19828548257937245,"105":0.1195763372701042,"106":0.12353125356825029,"107":0.07903200794424758,"108":0.15486717987552312,"109":-0.03483865564251218,"110":0.17732880465122125,"111":-0.08778691663186831,"112":-0.059992710890646055,"113":-0.05109069579729079,"114":-0.12340934992529659,"115":-0.053439034791170244,"116":-0.13342320231095092,"117":0.13340266597158282,"118":-0.1941055797803751,"119":0.0853533819964808,"120":0.07059782306843528,"121":-0.01135529631897506,"122":0.17093074600253463,"123":-0.04933271978239529,"124":0.040983953450104936,"125":0.07282467349792783,"126":-0.03684282357153899,"127":0.07088153418478067,"128":-0.07713381512620471,"129":-0.054151299465209815,"130":0.13137394957061774,"131":0.05349175360630666,"132":0.1076128188274661,"133":-0.025795437713887606,"134":0.15885188279350584,"135":0.1394176747942623,"136":-0.08736612723979398,"137":-0.19436599687191108,"138":-0.14313727340834242,"139":-0.029529480159503893,"140":0.05847690450084293,"141":0.11428645666259507,"142":-0.138453522667433,"143":0.17542900292290856,"144":0.13467844136840307,"145":0.08368554724073657,"146":-0.07430835970216358,"147":0.14404406963036692,"148":-0.15101890031345752,"149":0.018345752790502202,"150":-0.046451133246561464,"151":-0.06853672973701122,"152":-0.008489965550629216,"153":0.07841507668398101,"154":0.09061506162295258,"155":-0.044321642333358356,"156":0.06800866535941441,"157":-0.13832564518576657,"158":0.05678874152664718,"159":0.046344002739782154,"160":-0.04760306277340028,"161":0.11581044342753521,"162":0.08414539028462309,"163":-0.03675452322802033,"164":-0.07563749330795279,"165":-0.17982327958158273,"166":-0.10337943542493834,"167":0.09065261259970864,"168":0.036047484493338756,"169":-0.059899040404911334,"170":0.19164117822177798,"171":0.0240388722526061,"172":0.02573812443002877,"173":-0.13169452792210715,"174":-0.030905082589772433,"175":-0.09994173688277964,"176":-0.105068660683586,"177":-0.02601874646843133,"178":0.027867950245276607,"179":-0.04832982727735204,"180":0.06378172888769931,"181":0.006887537439454789,"182":-0.043790558955072854,"183":-0.13210953142759968,"184":0.1175008715800822,"185":-0.023929395521423036,"186":0.009395647743665522,"187":0.13762660682194688,"188":-0.06850433883733607,"189":-0.1460500358392063,"190":0.193689676940833,"191":0.12221941758800996,"192":0.06149942711121096,"193":0.17661229727943223,"194":-0.06678257451198752,"195":0.0752928599003071,"196":0.02611194709092179}},"2":{"bias":-0.1766339499632883,"weights":{"0":-0.10552769060981172,"1":0.06495833495190226,"2":-0.03349946466008791,"3":-0.016933345648466047,"4":0.1328674168680644,"5":0.1037343163459465,"6":0.18836551152516587,"7":0.18516062718313273,"8":0.2179534475170596,"9":0.10324149939054161,"10":0.14354830226516926,"11":0.1228077115359106,"12":-0.09044233190686772,"13":0.06511404570592243,"14":-0.12252646170583793,"15":0.04441328548146144,"16":0.06733169192242618,"17":0.030956388663203424,"18":-0.0698521731521438,"19":-0.09790770239961318,"20":-0.08513350533065986,"21":-0.11569003564114246,"22":-0.21288375777698929,"23":-0.22672216210030205,"24":0.11791021342222001,"25":0.12746408253907948,"26":-0.09492796754438444,"27":-0.1873152847073614,"28":0.07834738074476132,"29":-0.12158705725188947,"30":0.12201318343492602,"31":-0.24415984007831693,"32":-0.16583769855769256,"33":-0.15418612643335236,"34":-0.25269787153614154,"35":-0.05687409527038125,"36":-0.19265329052685204,"37":-0.09567007752304996,"38":0.1070868333773662,"39":0.013575301540606275,"40":-0.07035566818865986,"41":0.06293626291189496,"42":-0.0303090863893666,"43":-0.185354104808149,"44":-0.05895170759516491,"45":-0.058105423956791635,"46":0.10027893630937372,"47":-0.1804401961064537,"48":-0.18345705137361243,"49":-0.0033619630910364075,"50":-0.08321042184729897,"51":0.027500972428482817,"52":-0.020197048662049168,"53":0.04914208564585693,"54":0.059730695679881006,"55":-0.13738307026717245,"56":0.102944841433862,"57":-0.1417209515393707,"58":-0.10798533673331319,"59":-0.03013058905716679,"60":-0.15647258014948084,"61":-0.03183293385978505,"62":0.11555272980653454,"63":-0.14883029421733784,"64":0.11258607794239987,"65":0.12733932172292334,"66":0.04929774626285117,"67":-0.03241141555997959,"68":0.06856731112603924,"69":-0.06008978157743488,"70":0.1285609433907593,"71":-0.13870563797180166,"72":0.16927869075636234,"73":-0.04696083754626012,"74":-0.16976565512522585,"75":-0.019201286463886198,"76":0.04270226085092269,"77":0.12286924897283652,"78":-0.00760824267426268,"79":-0.18785404581501164,"80":-0.09932176155420615,"81":0.007356672257490223,"82":-0.1275754693645326,"83":0.18392796984413196,"84":-0.0059923674481355774,"85":0.15662415600575408,"86":-0.182365799421737,"87":-0.16259227941923338,"88":-0.1570727159283783,"89":-0.16302826908479215,"90":-0.03657831116128832,"91":0.0423886583028264,"92":0.16805913569652342,"93":0.0015097827816781945,"94":0.029657050846030195,"95":0.16776711545635237,"96":-0.19247775776314435,"97":0.16373102591959932,"98":0.11525822505893972,"99":-0.018000561102550963,"100":0.1779999808720763,"101":-0.1732901630563754,"102":0.08583616550850097,"103":-0.05472876856892927,"104":-0.1124888547239496,"105":0.07386360208401797,"106":-0.07702201983121189,"107":0.10578750049401063,"108":-0.18413764265282714,"109":-0.002694796054733836,"110":0.14027437927895037,"111":0.12421990181951435,"112":0.17209401183250914,"113":-0.1358324496568685,"114":0.06531243083592418,"115":-0.1603735141719953,"116":0.11336144876416032,"117":0.04903468847498881,"118":-0.030745761775340223,"119":-0.09568641319923109,"120":0.17696842450353897,"121":-0.08730822633780236,"122":0.008272761591841754,"123":-0.048617702075383996,"124":0.1478720679111001,"125":0.06089991996994897,"126":0.0586866454191116,"127":-0.10506545196881244,"128":-0.038284618339781036,"129":0.03836242838625921,"130":-0.029875600725883897,"131":-0.12286431862739464,"132":-0.03099958064041949,"133":-0.15008206842250055,"134":-0.041952675649827506,"135":-0.10024972939283193,"136":0.03051892409805458,"137":-0.17830398416760918,"138":-0.09847134258367654,"139":-0.03586910670000833,"140":0.06845519762901019,"141":0.07225758813541798,"142":0.196789408865362,"143":-0.10298699927409907,"144":0.09519852483450829,"145":0.14682205327232822,"146":0.06155731764073262,"147":0.011578180018320349,"148":0.002384248820729459,"149":0.07325717183023076,"150":-0.05053824965250581,"151":-0.019102278930716088,"152":-0.15409798874017996,"153":-0.13784473445829123,"154":0.13299542026433636,"155":0.12313674461998182,"156":-0.06198048526746496,"157":-0.014155160687435199,"158":-0.05789401060820417,"159":0.05716248348153266,"160":-0.16771475557730775,"161":-0.0122447071797574,"162":-0.1118400229226345,"163":-0.14499393448150105,"164":0.02756235832914053,"165":-0.035713082552669334,"166":-0.1559910991275125,"167":-0.16685839218711823,"168":0.14371511471393017,"169":-0.07895432573397258,"170":-0.1155472741091064,"171":0.059130623464732746,"172":-0.15880708057268964,"173":-0.05228983555738191,"174":-0.1419328847890533,"175":0.12921395314514011,"176":-0.01442160517251031,"177":0.11860154358742253,"178":-0.06575080007640259,"179":0.039202725587296525,"180":-0.08946291346966856,"181":0.1359637548602568,"182":0.1624427856604494,"183":-0.15600128964857582,"184":-0.1268339287481811,"185":0.06422291826364676,"186":-0.1796849145691745,"187":-0.14311523384311764,"188":0.00416055426767035,"189":0.08878094510411894,"190":-0.15084860764477775,"191":-0.13582314931148254,"192":0.08851148328022948,"193":0.10668535187895226,"194":0.08565528230317052,"195":-0.0012299493097633887,"196":-0.010768063284200536}},"3":{"bias":0.11750096422196961,"weights":{"0":-0.09303510435978055,"1":0.03165902629794141,"2":0.03498601537010513,"3":0.06431905112070903,"4":0.04835993540717113,"5":-0.039717995601951044,"6":0.17619412387605887,"7":0.05845625742490782,"8":0.1980719610465157,"9":0.16342622400205553,"10":0.17284120396075114,"11":-0.1470876873473364,"12":-0.13196856353135672,"13":0.11524397542738832,"14":-0.04847219175470701,"15":0.004064582932230284,"16":-0.1806914951770843,"17":0.013975938795243028,"18":-0.18926724258439262,"19":-0.15454344498975092,"20":-0.07557374469335118,"21":0.20886930011543625,"22":-0.009694701685787873,"23":0.22913844734796218,"24":0.030131001789595355,"25":-0.02392159320205828,"26":-0.10607498780702976,"27":0.035467748930951414,"28":0.0005356292286334734,"29":0.19230184475579126,"30":-0.14941012795298153,"31":0.03252347425150866,"32":0.14967089709197653,"33":-0.028673058281018654,"34":0.09717019598211193,"35":-0.03494463499495204,"36":0.15400845054397383,"37":0.09227666024330797,"38":0.17454542534128742,"39":-0.20851316383117263,"40":-0.03352150183256308,"41":0.03453136398171581,"42":0.034545467013379356,"43":-0.14614001951171826,"44":0.09205010277091656,"45":-0.09889520927117434,"46":-0.2027367597484202,"47":0.09504812499059732,"48":-0.20395246502593867,"49":0.12254559837694663,"50":-0.19493461803456114,"51":0.0808808822454425,"52":-0.1650115109353073,"53":-0.2505413400704478,"54":-0.09619556560549045,"55":-0.1206639899389456,"56":-0.040772473387818094,"57":-0.1885889070052859,"58":0.09757673733503479,"59":0.11213971149630013,"60":0.1799853404355423,"61":0.010624474299952776,"62":0.15879671711193089,"63":0.014829345191974133,"64":-0.06443819526707809,"65":0.060358613305348356,"66":-0.16284000715320665,"67":-0.14621436963715187,"68":-0.1410608351913338,"69":0.1037294152298625,"70":-0.007075172978303815,"71":-0.16187413427479622,"72":-0.1882292228474676,"73":-0.07894199419648655,"74":-0.10152837007371403,"75":-0.14666155609397394,"76":-0.16949513489248985,"77":-0.11970606849298783,"78":-0.07501152909129974,"79":0.1388243569851389,"80":0.08412666705768193,"81":0.16942334049882352,"82":-0.1527933116658464,"83":-0.1127655512018492,"84":-0.17154345355023684,"85":-0.14591205404288723,"86":-0.18993877975022666,"87":-0.15704696753553526,"88":-0.000020092108678077588,"89":-0.039887760715140656,"90":-0.11091283509768252,"91":-0.039839046937266386,"92":0.10198996087798665,"93":-0.1250465505899058,"94":0.16501963303485323,"95":0.00971872041660736,"96":0.12234458968837804,"97":-0.023946356082981273,"98":-0.15420357557548228,"99":-0.031892114413942525,"100":-0.004049251652702146,"101":-0.02763348997653454,"102":-0.05340592582654711,"103":-0.057886627292868816,"104":-0.19375619302819685,"105":0.089803125526155,"106":0.17629214763224016,"107":0.09423883286608488,"108":0.19560372298463735,"109":-0.10849758796801122,"110":-0.1836661278605572,"111":-0.027307771089721388,"112":-0.00036353285477465006,"113":-0.011371677477324132,"114":0.07892548244421872,"115":-0.17916268616859538,"116":-0.022304674007435354,"117":-0.044955440957985995,"118":0.0770301251949982,"119":-0.10647619299106982,"120":-0.09062064761421983,"121":0.11236132504405662,"122":-0.07046697896788011,"123":0.09470934307156399,"124":0.028918283454199133,"125":0.11125879150584318,"126":0.16730592055402216,"127":-0.12456816468693838,"128":-0.16127014721810157,"129":-0.18279545044601958,"130":0.13359655451702412,"131":-0.127928315337009,"132":0.0344436238515496,"133":-0.09365583533117729,"134":0.049671744445037094,"135":0.17701695443535792,"136":0.12713582174823418,"137":0.18942137047746527,"138":0.059461851786537304,"139":0.0499364311709324,"140":0.07759779471211016,"141":0.08425950414659124,"142":-0.03599693633078059,"143":0.1028989788187213,"144":-0.06826416777667083,"145":0.11440640153939387,"146":0.06921058083420152,"147":0.029884023163079962,"148":-0.05220850761721539,"149":0.19160716616812778,"150":-0.0393630574957972,"151":-0.0503781377062434,"152":-0.057230683951510056,"153":0.03534472331808515,"154":0.022955870995966743,"155":0.15886272489779413,"156":-0.08640291717602068,"157":0.1454784475717702,"158":0.18342044792456075,"159":0.13472695154786396,"160":-0.1686942610526682,"161":-0.06216746128571214,"162":-0.018581389734846826,"163":-0.1375975240859475,"164":0.13089417716034968,"165":-0.1897333028478271,"166":0.18135804251605786,"167":-0.08628462650672354,"168":0.15627961876447954,"169":0.009104942866560327,"170":-0.14251246071020768,"171":-0.04109159747634994,"172":-0.08273615634865118,"173":-0.08160300775029487,"174":0.1073649658373826,"175":0.1079895962693951,"176":-0.0680901643444954,"177":0.17046594923844166,"178":-0.08839234779233289,"179":0.18415866095392625,"180":0.14402355488771562,"181":-0.10732146182406688,"182":0.15556269223068653,"183":-0.15222911311387077,"184":-0.04360276435609027,"185":-0.014848876827360824,"186":-0.11816179593548147,"187":0.13244166219079972,"188":0.030203943816596593,"189":0.1814361023739876,"190":-0.05494229039565736,"191":0.03958926078471485,"192":0.033946473319156414,"193":0.07579669171558925,"194":-0.025352993754196404,"195":0.08416439591717864,"196":0.03768923178218676}},"4":{"bias":0.08155540348268499,"weights":{"0":0.13930561401957595,"1":-0.0434569342358984,"2":-0.002640349577664477,"3":-0.011264967344893538,"4":-0.05578725273122196,"5":-0.10088233977968736,"6":-0.05474228347375017,"7":0.20775419626887612,"8":0.21043821973419305,"9":-0.05584237764472732,"10":-0.10674829744908029,"11":0.07169278810072749,"12":0.15540776795249914,"13":0.10752386524259062,"14":0.09142381438084285,"15":-0.0013123922256003241,"16":0.16533893360061766,"17":-0.08433559888187175,"18":-0.1852737898306843,"19":0.036357490408795184,"20":-0.10105180403040526,"21":0.06511701388675878,"22":-0.04691684704375804,"23":-0.05206231894420468,"24":-0.21852947938816353,"25":-0.015218647791712683,"26":0.08199802309880438,"27":-0.028115788241787287,"28":-0.11239283391388832,"29":0.14120605189399274,"30":-0.007422457908583134,"31":0.13594607254813948,"32":0.11981637978311135,"33":0.007752482686717937,"34":-0.01848182584233635,"35":-0.15016812452260148,"36":-0.15206283430253487,"37":-0.02107216171082027,"38":0.14119032331005835,"39":-0.003456898457145158,"40":-0.1231219888851216,"41":-0.0987017691486152,"42":-0.09676486414982544,"43":0.030766537905565525,"44":0.062998696460499,"45":0.14812792764815744,"46":0.15968675530327656,"47":0.13495165518943822,"48":0.06453424306843214,"49":-0.02918237726836854,"50":-0.03104195294778034,"51":0.1006573132691432,"52":0.1008063385683601,"53":0.2548135520216758,"54":0.1672530723498932,"55":0.042821113017111966,"56":0.10071260644854241,"57":-0.14239812292981321,"58":0.03853964915892301,"59":-0.07913285124380758,"60":-0.1634328590628636,"61":-0.1844311837855708,"62":0.18842472189463705,"63":0.0340828091382034,"64":0.04413385422530523,"65":0.04072201768273999,"66":0.008169003101315254,"67":-0.03976142613559268,"68":-0.07119581447630176,"69":0.1484653418091849,"70":-0.12743518178629448,"71":-0.10400686829147164,"72":0.14161294141323852,"73":0.17598388689583963,"74":0.03505966395980935,"75":0.07044671624191425,"76":0.16357899346706012,"77":-0.010312698414620172,"78":-0.10363387604029098,"79":-0.0190017194487153,"80":0.15768725685932294,"81":-0.06611520508397493,"82":0.11647158263694225,"83":0.19005299653060181,"84":0.03548389994412339,"85":0.1792382803767314,"86":0.1604821248369395,"87":0.027218166037575844,"88":0.035199300326017466,"89":0.1693495802278735,"90":0.03405604897443891,"91":-0.07881238860728153,"92":0.17249717932713432,"93":-0.007706646443276568,"94":0.10087635840016147,"95":-0.030787417364110628,"96":0.1957269033261073,"97":0.015188736560197704,"98":-0.04803272279786609,"99":0.15129221512396432,"100":0.05668592592729381,"101":-0.12823778385525272,"102":-0.04506596292886887,"103":-0.13727213284368225,"104":0.11526207485887914,"105":-0.020297444833681674,"106":-0.030473510856621113,"107":-0.20007482484601766,"108":0.0945204612859168,"109":-0.19885134023876308,"110":0.07474872835086079,"111":-0.09748974042233019,"112":-0.06493952238054738,"113":0.13884844574291955,"114":-0.028837077655849853,"115":-0.15722950626786242,"116":0.15233514771964535,"117":0.10297425992934549,"118":-0.195154302395736,"119":0.12839971598695876,"120":-0.05849221620536377,"121":-0.18649629371980034,"122":0.08978460040379165,"123":-0.1969889192777448,"124":-0.047292964665743814,"125":0.11850110660293987,"126":-0.19399357302409903,"127":-0.16045499369340138,"128":-0.09136026237243228,"129":-0.19637248630171855,"130":-0.16023066091792593,"131":-0.1859854347793578,"132":-0.11166789359490072,"133":0.0725707166844017,"134":-0.14372814003452203,"135":0.13443745996755757,"136":0.09613833156093983,"137":-0.03634556482434409,"138":-0.1627467838079524,"139":0.027311033446519875,"140":-0.07099165677259377,"141":-0.02642020289468812,"142":-0.10164170904375795,"143":0.09375654783148459,"144":0.06161739124722219,"145":0.19390756108071722,"146":0.13877264130313482,"147":-0.009579494949374946,"148":-0.14266519004904862,"149":0.16488780770250097,"150":-0.11143850124916016,"151":-0.17968509358844525,"152":0.17150757685435195,"153":-0.196119503167204,"154":-0.19643450292260772,"155":-0.046557933115357164,"156":0.017634147793532902,"157":-0.14482685680966004,"158":0.15885958024090271,"159":0.08603909165447379,"160":-0.15212920952816897,"161":-0.1269652029716645,"162":0.07805855614282645,"163":0.18550458493140984,"164":-0.0658189533152862,"165":-0.15998261423475463,"166":0.1451990919871477,"167":0.004308763386139552,"168":0.03097928250786371,"169":0.1804007848911784,"170":-0.044534847695093575,"171":-0.020081445582428564,"172":0.19420164813044388,"173":-0.08127015685685916,"174":0.18980096498430235,"175":0.14998883480417605,"176":0.109618134924006,"177":-0.10176438618302909,"178":-0.17183854895379785,"179":-0.03843930749636856,"180":-0.10867355873702535,"181":-0.08525273555316272,"182":-0.06650761335804888,"183":0.019143321810014168,"184":0.1362893278289438,"185":0.09431800052554061,"186":0.11445160395000929,"187":-0.18823351861300688,"188":0.17586586153559294,"189":-0.01539971511746311,"190":-0.19095523334993417,"191":-0.05895875464028097,"192":-0.03334428988672426,"193":0.10438116886450007,"194":-0.03466749578141694,"195":0.15873843261375695,"196":-0.05802671496432997}},"5":{"bias":0.18237253457394428,"weights":{"0":0.11079641071627315,"1":0.08367751466753054,"2":0.23061737059700757,"3":-0.08563108201666293,"4":0.13259236075441866,"5":-0.1261907363155235,"6":0.22968717890223458,"7":0.10696621402157584,"8":0.13853172972721217,"9":-0.04761135602953857,"10":0.03301043156461082,"11":0.23558817705584703,"12":-0.05990771660069376,"13":0.22493326505579259,"14":0.002627196774013463,"15":0.011100285829805693,"16":0.09891676898377211,"17":-0.04837189001646812,"18":0.06685366827179981,"19":0.11171577285026112,"20":0.128227136193426,"21":0.24550706369851574,"22":0.09303049971158979,"23":-0.1352293938986134,"24":-0.07202655590852039,"25":0.10878497857111254,"26":-0.14889965729706847,"27":0.09711986178011064,"28":0.09056689321215616,"29":0.013429125765365377,"30":-0.1336493679374278,"31":-0.022708267510585828,"32":0.0013396022180234518,"33":0.16980968188058773,"34":0.09257958972647616,"35":-0.11151035223034919,"36":0.16910814831917845,"37":0.14137851780629065,"38":0.06452421721150231,"39":-0.09717952790513344,"40":-0.1372215347773328,"41":-0.2790647913924055,"42":-0.011212642772226888,"43":-0.1904073392756211,"44":-0.21022643437670493,"45":-0.24977528066163499,"46":-0.11339365320181417,"47":0.04988795868047962,"48":-0.00261645435754789,"49":0.040347594502846314,"50":-0.17849890148751724,"51":-0.21874160785977806,"52":0.020658035099980425,"53":-0.13794028267090452,"54":-0.2123055160666741,"55":-0.16645361047398358,"56":0.023217914873221977,"57":-0.03870531019559654,"58":-0.012001658007951105,"59":0.12481021995405064,"60":-0.1030726491081767,"61":-0.1381419853730731,"62":0.1100856508621995,"63":-0.03331356257518806,"64":-0.18528259411126435,"65":-0.1863560574295818,"66":0.009049576174602529,"67":-0.11125385620353508,"68":0.05071038461665466,"69":-0.1920774980457153,"70":-0.10070639326283015,"71":-0.12999511597796556,"72":-0.13286723978877366,"73":-0.06007361954538696,"74":0.16124146016551905,"75":0.13016621037295326,"76":0.0835001650096379,"77":-0.06417839954210125,"78":-0.10746625160315214,"79":0.1953990593949669,"80":-0.016669027610213674,"81":0.16857039810486227,"82":0.04346876643820632,"83":0.024488939300788763,"84":-0.1304475944287486,"85":0.12551341995157392,"86":0.16045991930487924,"87":0.11554589926999834,"88":-0.20367829914882168,"89":0.039228224532111326,"90":0.04203857843851907,"91":0.19054418230792367,"92":-0.13076013415073148,"93":0.11334821931702765,"94":-0.1793729499270529,"95":-0.19784287752697644,"96":0.15946072559735838,"97":0.15246209031957145,"98":-0.024990496024141245,"99":-0.004724839622670021,"100":0.057859049769035956,"101":0.04684664387787764,"102":0.018735567263300446,"103":-0.08897130647004593,"104":-0.07710703805155626,"105":-0.04891381086233,"106":0.17430546891493068,"107":-0.08863107891521824,"108":0.09536962149030788,"109":-0.09718149018710577,"110":0.17277757033141053,"111":0.18936689155091666,"112":-0.015240980188238698,"113":0.11527584070620199,"114":-0.13118212052773387,"115":0.03411739608584043,"116":-0.09595707400498761,"117":-0.06858488954927743,"118":0.12195251941843137,"119":-0.07243306118785785,"120":-0.08457857155750556,"121":-0.07049683146172366,"122":0.13163107800742047,"123":-0.08142782350156878,"124":-0.018660418164182988,"125":-0.003454385591076418,"126":-0.0244281817942545,"127":0.06590931899721779,"128":-0.058099361915713334,"129":0.1925430286273125,"130":0.12660115114897805,"131":0.07237102491602679,"132":0.06784821118641629,"133":0.043361206822965556,"134":-0.04066809440611323,"135":0.002935887426347899,"136":-0.03590549973519429,"137":0.16556508907197867,"138":-0.12577309662399658,"139":0.0018742121792618364,"140":-0.11461983366643126,"141":0.14468735099920313,"142":-0.0720990971564203,"143":-0.15278771122288612,"144":0.19604037066000113,"145":0.15581602218991417,"146":0.0673260948094895,"147":0.003126234643143645,"148":-0.14230895385680667,"149":-0.10924026223648063,"150":0.18803052500412287,"151":0.04910489675508673,"152":0.11033603432613474,"153":0.014983265453247786,"154":-0.023201531187847287,"155":-0.025964649727754804,"156":-0.1561823903059163,"157":-0.18817050890721987,"158":0.1957952108341191,"159":0.04362563516777113,"160":0.016994970773816145,"161":0.059045865263004406,"162":-0.07462454968530437,"163":0.07963586816029349,"164":0.07829535117133894,"165":-0.11265328457905902,"166":0.12705668595512848,"167":-0.018017688918094167,"168":-0.05857811559531723,"169":0.10339998828242943,"170":0.08484331231236115,"171":0.11713239481027733,"172":-0.051621402778828714,"173":0.17572897187777883,"174":0.08703828218041706,"175":0.1402945539891983,"176":-0.1356066100447804,"177":-0.14113513504418218,"178":0.12662413827179847,"179":0.13531214258804256,"180":0.032568301464328736,"181":0.11079966213809447,"182":0.13933924935620065,"183":-0.036700269747008026,"184":-0.1506152248967402,"185":0.17732000502679576,"186":-0.15582742269934077,"187":0.10116195339606945,"188":-0.09864096201643512,"189":0.03568774092997345,"190":-0.15959971027141076,"191":-0.019808893150715313,"192":-0.1922028538776702,"193":0.14608293227919214,"194":0.17065794389385594,"195":-0.1323114574156802,"196":0.17289293885117676}},"6":{"bias":0.030202448828885654,"weights":{"0":0.10926337640224977,"1":0.07390453216759114,"2":-0.14639347326148353,"3":-0.04088791816341544,"4":0.1292879500848506,"5":-0.1421871725292316,"6":-0.03417425126468187,"7":-0.03609099242337712,"8":-0.014823311430361837,"9":0.03121927660091693,"10":-0.09632181560972958,"11":0.1488422537771278,"12":-0.15966031098573158,"13":-0.03251380458577462,"14":-0.2031203800065034,"15":-0.1882025254660476,"16":-0.1564504644659494,"17":0.06596777499846386,"18":0.16333103185512415,"19":0.059327866805989234,"20":0.013983154881482728,"21":-0.04349092728696855,"22":0.08822847854931033,"23":-0.2139373412195455,"24":-0.14773628519932985,"25":-0.26844064233201653,"26":-0.14499034763458943,"27":-0.16711992801858172,"28":-0.0324465974439929,"29":-0.21284457644008295,"30":-0.023766921332035822,"31":-0.10282961146327971,"32":0.08191048027269082,"33":-0.21907826548328999,"34":-0.1860985252302202,"35":0.045614880510187535,"36":0.0059027082535315035,"37":0.012682022069868444,"38":-0.09823265797766688,"39":0.1565038808095807,"40":0.1500088638540326,"41":0.2051414659813767,"42":-0.0014804340245978117,"43":0.16393884554866164,"44":-0.18290363312155244,"45":0.014356374659837261,"46":0.011172311499433334,"47":-0.017371465457025153,"48":0.15669452805977016,"49":0.004023475064938593,"50":0.11078338981065876,"51":0.07201476144960381,"52":0.019266560357076763,"53":-0.0007968551269955277,"54":-0.059341432126618826,"55":-0.08592866800249596,"56":0.08528209177794205,"57":0.03148980540212624,"58":-0.008197504264713,"59":0.10986898135679604,"60":0.1358501805023791,"61":-0.18510597983965263,"62":0.14053140795032554,"63":0.17721706491022873,"64":0.15392399234366136,"65":0.10178995154992063,"66":0.1313513220711934,"67":0.162961763537627,"68":0.05075439399788629,"69":-0.0009294713306968399,"70":-0.14310016241195184,"71":-0.0733727973078898,"72":0.08181361046957733,"73":0.09683392842903457,"74":-0.13116673372998586,"75":0.2033360837128317,"76":0.16189757991481435,"77":-0.1583123139939741,"78":-0.04888841501058481,"79":-0.08896939658916062,"80":0.02525200484721601,"81":-0.1572737298698189,"82":0.05850608170843119,"83":0.1655300007661551,"84":-0.021917670429331768,"85":0.07333007706132652,"86":0.14713156351581907,"87":-0.1613438974304937,"88":-0.04041074895888954,"89":-0.1441114551494666,"90":0.11179349731299125,"91":0.09316792372805559,"92":-0.12988414910965135,"93":0.05301689563089601,"94":0.17902861136378956,"95":-0.0010306161283252192,"96":-0.19421858551650723,"97":0.00862105153197651,"98":-0.13594847086861817,"99":-0.17588529910545103,"100":-0.16380441439612703,"101":0.09038090557198601,"102":-0.07195738807177139,"103":0.0449214718564979,"104":-0.11672847502042223,"105":0.08371464934334998,"106":0.06535323932363944,"107":-0.18140350083949056,"108":0.035988079453106565,"109":-0.17727103040529604,"110":0.15569477285241695,"111":0.1617627956513918,"112":0.0633241696923681,"113":0.026287425103996523,"114":0.06531367112737904,"115":0.18798175280322824,"116":0.06970978099492205,"117":0.1899199240014042,"118":0.11830183209995888,"119":0.17435254294927463,"120":0.19365481355455247,"121":-0.03734572762559289,"122":-0.1602624261219682,"123":-0.1409474780998349,"124":0.05526147557913598,"125":0.08018578447283999,"126":0.00918340641158975,"127":-0.18263618913688545,"128":0.18151518055087287,"129":0.17251399615275542,"130":-0.0977851407809362,"131":-0.014801045746394953,"132":-0.07122246744526806,"133":0.04546334750669221,"134":-0.05073824232961304,"135":0.20690340865341172,"136":-0.15293000818220426,"137":-0.13612544545922434,"138":-0.06083080887008339,"139":-0.05729542512388144,"140":0.16728962178620183,"141":-0.0855654435561114,"142":0.031504204302085635,"143":-0.1528555611459721,"144":0.07296628970923469,"145":-0.06803071530260357,"146":-0.09020778460470942,"147":-0.13929322037046796,"148":0.1014993075138919,"149":0.10887385624616074,"150":0.05963069364993845,"151":-0.1263271034134996,"152":0.13682631469995088,"153":-0.004173293874253963,"154":0.01600375696641664,"155":0.18769369081808165,"156":0.05092219655932728,"157":0.18906002967379484,"158":-0.013187715080515194,"159":0.11344283343484406,"160":0.017717464392672175,"161":0.16615947551921809,"162":-0.02774338977254962,"163":0.16747018265787725,"164":0.019114297924589973,"165":0.10569457098644462,"166":-0.12437378118013594,"167":0.19534541910255904,"168":-0.12780516408712034,"169":-0.06756335772997323,"170":-0.1455412427069217,"171":-0.1423041467046591,"172":-0.18381248476362727,"173":-0.16892238923463457,"174":0.044404812361302226,"175":-0.046256867390116974,"176":-0.03546017575424215,"177":0.16410277007241564,"178":0.11010571139863602,"179":0.022419677803716603,"180":-0.1451086429572371,"181":-0.12700941764285142,"182":0.05840756463415006,"183":0.09484487201386695,"184":-0.15338717151865267,"185":0.1394516612902354,"186":-0.007164690945347589,"187":-0.125333482302613,"188":0.15831848302730273,"189":0.15235793597007952,"190":-0.09791338068494086,"191":0.16416222413986625,"192":0.16010383519232807,"193":-0.09410411034417304,"194":-0.18373413543658493,"195":0.11683933968911951,"196":0.1833779752494893}},"7":{"bias":0.18221264056551542,"weights":{"0":-0.1780583703311891,"1":-0.21964010722518731,"2":-0.05745192277316497,"3":-0.13064817884334362,"4":-0.108149580584532,"5":-0.01632863152621,"6":-0.1005596414844656,"7":0.027778501016585015,"8":0.10157841972186307,"9":-0.10019853212105319,"10":0.0758502887280448,"11":-0.18121729188995472,"12":0.1507028925653569,"13":0.046492712394104636,"14":-0.08459915295490035,"15":-0.11044074324595932,"16":-0.10715165834136509,"17":0.12821161261739034,"18":0.09728709088826307,"19":-0.15398157736658183,"20":-0.11846110674822753,"21":0.02407741118949364,"22":0.060988663718551765,"23":0.02700062319550445,"24":-0.13246877389692924,"25":0.006867293656674201,"26":-0.06819310805669278,"27":0.09375989107494374,"28":-0.13598670729280726,"29":-0.0673730820712909,"30":0.10148650536857072,"31":0.16078106135686113,"32":-0.12822648836621392,"33":-0.030037264140671028,"34":-0.06534778567015821,"35":-0.13756006701520335,"36":0.09704802600200256,"37":0.14965649112601864,"38":0.024891885058720725,"39":0.13507243268840777,"40":-0.02379415286356189,"41":-0.20463920594719984,"42":0.04039329989006274,"43":-0.13003331974653223,"44":0.09133079064335549,"45":-0.08864725440763717,"46":-0.15373702611608117,"47":0.10944248968482034,"48":0.05666973345606158,"49":-0.06747028131025065,"50":0.1058200797410151,"51":-0.216689641276241,"52":-0.015626866579906643,"53":0.0944556754087847,"54":0.05570831151232876,"55":0.15057479508400343,"56":-0.11481970559846154,"57":0.06369317430557621,"58":-0.09544475558228321,"59":-0.024991074849577757,"60":0.11326374309306443,"61":0.04249104364198878,"62":-0.07299898633580867,"63":-0.1820777583037842,"64":-0.14897145525602382,"65":0.03458356777852587,"66":-0.09413503047810073,"67":-0.09152331684375409,"68":-0.15552180212053437,"69":0.05136526913363721,"70":0.05880373127649297,"71":0.050197798675077406,"72":-0.0391231829335816,"73":-0.14317699071000053,"74":-0.1805197630123599,"75":0.053104087991215534,"76":0.08246564330343989,"77":0.08756642271410099,"78":0.061036918604089385,"79":-0.15215834748013954,"80":-0.09743817641278374,"81":0.030439449808530132,"82":-0.1897359132439461,"83":0.06323843021011483,"84":-0.08803018547645143,"85":-0.09213593341567082,"86":0.16918916410613222,"87":-0.05761275280754446,"88":-0.013750869790642405,"89":0.133669652519493,"90":-0.14628577195865508,"91":0.06810511037528338,"92":-0.07014051227561938,"93":0.04748349398828203,"94":0.0576692834214953,"95":-0.05957176528088397,"96":-0.05429108459692491,"97":-0.11368746393688654,"98":-0.05163150852653852,"99":-0.07290767025697475,"100":0.10213254908126346,"101":0.07627360785600013,"102":-0.09573647634795449,"103":-0.02791834218096434,"104":0.16545476990323577,"105":0.15765179015954334,"106":-0.13497708226571897,"107":-0.02360318569781092,"108":-0.052689634376442356,"109":-0.03204576838609038,"110":-0.03985902763460857,"111":-0.04321362472433656,"112":0.033885983261357486,"113":-0.006477083936110002,"114":-0.09088774668655258,"115":0.18494340778288723,"116":0.01071835927033237,"117":0.18475010839763326,"118":-0.07029136180457864,"119":-0.08983909428136846,"120":0.15233169773447439,"121":-0.08428736743131002,"122":-0.040810673782736465,"123":0.03772061547684204,"124":0.04166639128143422,"125":-0.12633187793300846,"126":0.09040852789191633,"127":-0.0924075007362982,"128":0.06866899473464795,"129":-0.02648213495589297,"130":-0.11702385673815222,"131":0.1613095412121296,"132":0.07864524845881103,"133":0.14214899585043395,"134":0.03059634312991227,"135":-0.04824880952683747,"136":0.022494611153483748,"137":-0.11640642001856612,"138":0.026418846712874002,"139":-0.15575157624998734,"140":-0.1351768706737232,"141":0.014639276781081349,"142":0.0004974607970317231,"143":-0.16736539436744557,"144":0.057406926381044894,"145":-0.08972587549072492,"146":0.15512545961905605,"147":0.1445453875262747,"148":0.01584359387338412,"149":0.01241287576959897,"150":-0.18026601222391953,"151":0.034836701862259456,"152":-0.18329848096519524,"153":0.06299605216542864,"154":0.10426097538637212,"155":0.049358952714942075,"156":-0.055930469855299994,"157":-0.1033087602551865,"158":0.01899988251696687,"159":0.17214466174127585,"160":-0.011110033946253884,"161":0.12067179816000832,"162":-0.015915495699797413,"163":0.10545301045914256,"164":-0.007986159150458546,"165":0.18750532172434964,"166":0.009379230409407508,"167":0.19825678948296954,"168":-0.07981315498618119,"169":0.15732688697046332,"170":-0.10079234729352998,"171":-0.19628362400553273,"172":0.12053411538576597,"173":0.13627241662636,"174":0.08059244804919716,"175":0.1830067051607148,"176":-0.15424601801157695,"177":0.05544062726704591,"178":-0.18379195918654767,"179":0.10948005192046131,"180":-0.08074437626001386,"181":-0.05161314304050534,"182":-0.0011098557552307595,"183":-0.14440976349939624,"184":-0.09382710790022351,"185":0.12641036826492888,"186":0.12929718394351733,"187":-0.026805778890509377,"188":-0.002719802107944315,"189":0.13700028651163573,"190":-0.14259246672705925,"191":-0.1464383812411281,"192":0.07205597451519834,"193":-0.0495668721975273,"194":0.0010328170173521183,"195":-0.17842144536822982,"196":-0.0872715359888151}},"8":{"bias":0.12530498955670633,"weights":{"0":0.16505349140328204,"1":-0.1899641317188291,"2":-0.13578355883928953,"3":-0.10996614938185736,"4":0.03314234121681345,"5":-0.19228677257521787,"6":-0.19565890407594247,"7":0.11455045149960855,"8":-0.029178595764593068,"9":-0.0537737527209631,"10":0.04656825218242741,"11":-0.0015783783250276733,"12":-0.10563180893115598,"13":0.14575688224452665,"14":0.005446392294668478,"15":-0.06137981496605077,"16":0.10080435656048815,"17":0.09579767695193138,"18":0.10312034816491535,"19":0.12017429202703568,"20":0.1682661293562922,"21":-0.015063620020684225,"22":0.10060425104584678,"23":-0.15691633506842226,"24":-0.14756699230640757,"25":-0.14551226903058218,"26":0.09879422963369397,"27":0.20235967642955432,"28":-0.12420570701619077,"29":-0.17653997668278604,"30":-0.03174237411636523,"31":0.059234866424670594,"32":-0.1524313713823096,"33":-0.13948643309348566,"34":-0.20304522795067878,"35":-0.13912084691379212,"36":-0.015858312672834742,"37":0.1037048978364167,"38":0.20494426239709548,"39":0.07424549021313498,"40":0.1699903272006679,"41":-0.177723244347505,"42":0.12949166472957194,"43":-0.19789077148954487,"44":-0.028022784623084714,"45":-0.1274684674015093,"46":0.10968731469761088,"47":0.11722679590173646,"48":-0.18682775654875222,"49":0.02906048954602395,"50":0.04781459915975552,"51":-0.22835453388393423,"52":-0.15982616171166383,"53":-0.0313407587155232,"54":-0.0060749581647438705,"55":-0.21694761998208809,"56":-0.03052944071142205,"57":0.16740627731067242,"58":-0.18533964578231327,"59":-0.07346183175238406,"60":0.18868912335697352,"61":0.1267223443707836,"62":-0.13990490183138335,"63":0.06158787926716608,"64":0.18249788735630906,"65":-0.1680338958477151,"66":-0.10753194541519283,"67":0.1390370534083133,"68":-0.15143098625562312,"69":-0.11703697093890136,"70":-0.12493311849261807,"71":0.13367046855147802,"72":-0.08513850393832947,"73":-0.06626298869786658,"74":0.1849294427867676,"75":0.09838830195055867,"76":-0.09483652514639525,"77":-0.1794217009682771,"78":-0.055261319130155515,"79":-0.1695535448880789,"80":-0.005427792017803265,"81":-0.0248922494871788,"82":0.17798541480617303,"83":0.021772935319749585,"84":-0.1825260554685931,"85":0.10426525975927595,"86":-0.08008096514799982,"87":-0.04978935263928661,"88":0.06847078126871348,"89":-0.035023698285677016,"90":0.13763277152787784,"91":-0.15411749456884838,"92":-0.09119807799966985,"93":-0.10631775861408922,"94":-0.04327219679249324,"95":0.09313359988059364,"96":0.11887713723551156,"97":0.1832765564230505,"98":0.14128900748936893,"99":-0.07835218222210795,"100":-0.057321172176039145,"101":0.17251548408701553,"102":0.11555566384226122,"103":-0.12037653848230509,"104":0.12346263813248552,"105":-0.09259661557125684,"106":-0.17331031672736025,"107":-0.025168945820693726,"108":0.16822506437615634,"109":-0.17840864688731278,"110":0.009462471467103613,"111":-0.05081439376784978,"112":-0.059869396408038886,"113":0.021069511440739243,"114":0.1360142521397594,"115":-0.12697413396928445,"116":0.20155495786139124,"117":-0.020045942209702343,"118":-0.03691162336632213,"119":-0.08654306159385362,"120":0.06740236615745075,"121":-0.02941049124296862,"122":-0.12500821797415249,"123":-0.17183138399325212,"124":-0.09993459952602801,"125":-0.10053130545127738,"126":-0.1498791015465289,"127":-0.1512746090357956,"128":0.12969942930221975,"129":-0.08538266656537813,"130":-0.07181919151723634,"131":-0.17640550916404127,"132":-0.06950193406695832,"133":0.04637997255470954,"134":0.03187594454560861,"135":0.07732938075127832,"136":-0.1708645245720379,"137":0.151624047298881,"138":-0.03172689233746374,"139":-0.16743627431816385,"140":0.12107479117403208,"141":-0.10783075811555266,"142":0.003917725313653072,"143":0.11329892808576791,"144":0.201419923165937,"145":0.026448483044037754,"146":-0.022825173272241164,"147":0.06197751739288007,"148":0.087564292963924,"149":0.16463468715038418,"150":0.14357993375800196,"151":0.1965862116216899,"152":-0.05461122278642514,"153":0.06404524164242288,"154":-0.10162559147823846,"155":-0.020502309207091767,"156":-0.09150220047253392,"157":-0.12978503861928206,"158":-0.025511862063872827,"159":-0.18843369154290504,"160":-0.11478710419697502,"161":-0.022362085305559287,"162":-0.01551630058724912,"163":-0.035855952312958496,"164":0.14783099379219503,"165":0.0193694529413989,"166":-0.12276376228800315,"167":0.15504796270636304,"168":-0.018657182976863456,"169":-0.0139488225187975,"170":0.0845944452022982,"171":0.03769523571521651,"172":0.17954996807584486,"173":-0.04146461550328163,"174":0.19663152027033384,"175":-0.009864157982216303,"176":0.12036322071697822,"177":0.1750897756117257,"178":-0.0841524904634418,"179":-0.046712930060035525,"180":-0.01788951113373819,"181":0.03380846410800284,"182":-0.05144135344244969,"183":-0.07483354243789694,"184":0.1839619348215478,"185":-0.013372459426316645,"186":-0.1808259562293915,"187":-0.184878018875197,"188":0.12506158641593143,"189":0.08937689404757934,"190":0.13925513994608948,"191":-0.09145214491407654,"192":-0.03675362097860038,"193":0.13605185788359606,"194":-0.17343589921566455,"195":-0.13702908011376888,"196":0.06578260807341456}},"9":{"bias":0.13752960324346317,"weights":{"0":-0.11239741449296209,"1":-0.1109527430512218,"2":-0.11606879828766815,"3":0.10347206837338686,"4":0.18253431638697834,"5":0.07401781699227739,"6":0.04111074387482449,"7":0.014615975067996247,"8":-0.07715609221887285,"9":0.022024098124042133,"10":-0.005977166719777663,"11":-0.09572919970600033,"12":0.0979231405044431,"13":0.22382728741522642,"14":0.23282552431895417,"15":0.19256834499864892,"16":-0.006597602568767517,"17":0.22163300542817035,"18":-0.04980051904662601,"19":0.05317829104975291,"20":0.13427652893448383,"21":-0.10170943524783845,"22":-0.17154891890325458,"23":-0.16551458662511026,"24":-0.12697068550682175,"25":-0.16712313002119406,"26":0.13261787804415553,"27":-0.17006674307047187,"28":0.026684232628751227,"29":0.07749098711023762,"30":-0.04461811935436129,"31":0.018608834460806706,"32":-0.16387579102842803,"33":-0.0836996895107788,"34":-0.05587312468020887,"35":-0.17595359645919334,"36":-0.10012359883132944,"37":0.12700491803917796,"38":-0.16252230189110686,"39":-0.16252181307662894,"40":0.1349644174856711,"41":-0.07398050636026704,"42":0.09969926419363535,"43":-0.03691806045957002,"44":0.18283663948263001,"45":0.22285926495268205,"46":0.20559649232231753,"47":0.15108659942557395,"48":-0.1104333832629125,"49":-0.1729738974028338,"50":-0.08836965268669987,"51":0.025370268417773446,"52":0.020228652635121306,"53":0.1892583782787821,"54":-0.1285053130439018,"55":0.03500906072833122,"56":0.08502128326590537,"57":0.059590658706760134,"58":0.1628602544415519,"59":-0.015616522152681807,"60":-0.036968038161834096,"61":-0.11546340614146214,"62":-0.19728837329768098,"63":0.021740738873925382,"64":-0.10166567231966377,"65":0.08777394973188592,"66":-0.14559151529484565,"67":0.03036841619893185,"68":-0.04764436882008766,"69":-0.20385521490527508,"70":-0.038846046934912504,"71":-0.02558611827080268,"72":-0.19987796936140845,"73":0.00689030393535182,"74":0.10583784430792599,"75":-0.14160064465915317,"76":-0.11558185540293775,"77":-0.20462719776427238,"78":-0.18008741512077645,"79":0.07092254851352796,"80":0.041506081783100376,"81":0.06766751268908165,"82":-0.10047502975711826,"83":0.06881178641821394,"84":-0.12252367543387914,"85":0.14949053551043714,"86":0.10944629542372877,"87":0.0008123621101177238,"88":0.122451262278281,"89":0.08081413769997896,"90":0.03191644341775872,"91":-0.15787370849056506,"92":0.06802559827329667,"93":-0.008334049807947204,"94":0.1080177602593813,"95":0.03903370684587419,"96":-0.03772582378245624,"97":-0.03747182529871557,"98":0.12553184301720072,"99":0.08906680971916382,"100":-0.19842987727195693,"101":-0.02719100082141323,"102":0.06767774748891948,"103":-0.14826577817247338,"104":-0.04764684228379904,"105":-0.1825026619942759,"106":0.09409334685864724,"107":-0.1796327310531607,"108":-0.15177709930586486,"109":0.13596080210854683,"110":0.13552682894337847,"111":0.06157280297233249,"112":-0.12503425857003006,"113":0.13851373171077008,"114":-0.007706962926880635,"115":-0.056676926479979836,"116":-0.06125760210844998,"117":0.16069170888125983,"118":-0.02442463137249552,"119":-0.16723132329913826,"120":0.03450391990873282,"121":0.007987378617436062,"122":0.03766779162827309,"123":-0.05535386879359795,"124":-0.1061346561771515,"125":-0.07110128613042184,"126":-0.1616180340149429,"127":-0.030031441576505762,"128":-0.023444268941068862,"129":-0.05849449153575416,"130":0.09728085603446124,"131":0.1456857546263312,"132":0.1702350667879723,"133":-0.04022007255482253,"134":0.01493203024471588,"135":-0.06874213039247623,"136":0.026299236547400184,"137":-0.13505744348927798,"138":0.1348045561283549,"139":-0.17140097090873563,"140":-0.11554407133380035,"141":0.12417504001789557,"142":0.11622810866773298,"143":-0.012280145597657392,"144":0.15463393969208641,"145":0.128138009517067,"146":-0.19898360753050182,"147":-0.10236527008710171,"148":-0.15232311707158017,"149":0.06382295137215843,"150":-0.08058169564286696,"151":0.15436116992614146,"152":0.06577372765284445,"153":0.12012558112525037,"154":-0.07112401565912316,"155":-0.07811604078458939,"156":0.06367072155019438,"157":0.03878492748535275,"158":0.17869616267122074,"159":0.06173510155666748,"160":-0.1897805488768076,"161":0.1648551779048858,"162":0.19161425649882313,"163":0.11676480261251848,"164":-0.02107911788188195,"165":0.19078978773728422,"166":0.1063792448893535,"167":0.1133565237870882,"168":0.0632560682798791,"169":0.10552061087597396,"170":-0.19482634668748045,"171":0.18215751359023585,"172":0.04295125140837773,"173":0.12181295162567926,"174":-0.021270756519198974,"175":-0.07461489022682052,"176":0.1506158188654696,"177":-0.05799236994551233,"178":-0.12608256610745117,"179":0.11720579878254217,"180":-0.14957116823625696,"181":-0.18430953395190505,"182":-0.17909796018801355,"183":0.15414675552217005,"184":0.06854598440571757,"185":-0.14985018153076174,"186":-0.003187378864766584,"187":-0.1855780621001395,"188":-0.16777023718414621,"189":-0.1257992600353439,"190":-0.10946504905011838,"191":-0.028833254680942787,"192":-0.10671860415696872,"193":-0.09754735928168948,"194":-0.12739985733889236,"195":0.047798715479989484,"196":-0.17441567665031094}},"10":{"bias":-0.13595698601047063,"weights":{"0":-0.0672388609891389,"1":-0.09988381144434688,"2":0.21566312495306178,"3":0.16612665855998457,"4":0.20006845271656926,"5":0.22138796764321744,"6":-0.12403342597582773,"7":-0.04904559110514626,"8":-0.03404457838775706,"9":-0.0470337035821104,"10":0.07235031744815008,"11":-0.0022207460956398697,"12":0.008970981413734399,"13":0.24619129818917065,"14":0.16895624889174024,"15":-0.10691092896991447,"16":-0.06645772791934805,"17":0.2218112161618021,"18":0.04387115334746443,"19":0.16433541757894468,"20":0.10133447606844215,"21":-0.03604421612243261,"22":0.10231865213956892,"23":0.18639563619256608,"24":-0.18217138049132084,"25":0.061402982867198655,"26":-0.05181860014154834,"27":0.15332379731933285,"28":-0.19180078889797117,"29":0.11188005483840097,"30":0.004864320427990219,"31":-0.14082431557116581,"32":0.08848714656378098,"33":0.1375520578728711,"34":-0.17387977979310126,"35":-0.1464298585265902,"36":0.046277952934878165,"37":-0.1568520154349309,"38":-0.16821194439544238,"39":-0.07577017029882548,"40":0.020555141430817415,"41":-0.018601036938553608,"42":-0.24038969524870826,"43":-0.02835435472467085,"44":0.01612823887717596,"45":-0.21736055079685532,"46":-0.22982185363352178,"47":-0.09241884595744317,"48":-0.14474879377536687,"49":-0.10660274832660949,"50":-0.05815739004914472,"51":-0.17081004708762218,"52":0.032496540185411274,"53":0.06486196700008456,"54":0.008443629255180144,"55":-0.038821003221534825,"56":0.06721039080103243,"57":0.11109164463388586,"58":0.024479462592675492,"59":-0.16687627944672953,"60":-0.1646494660857458,"61":-0.12347384457130453,"62":-0.14203085002508023,"63":-0.10316597993798089,"64":-0.03205753143057039,"65":0.11478660337223161,"66":-0.15919759860481492,"67":-0.10752329091346537,"68":-0.07306225520768451,"69":0.09926719007823169,"70":-0.06695276420909933,"71":0.03925290609640164,"72":0.053372704250927466,"73":0.15020932244121643,"74":-0.1718357415408819,"75":-0.17051646512530075,"76":-0.15550113081371325,"77":-0.11460182049215772,"78":0.18023227102291708,"79":0.05743568586803978,"80":-0.024539692910162624,"81":0.0371250929050275,"82":0.1930589406685512,"83":-0.12921243508447638,"84":-0.06711877801213073,"85":0.09074821176220577,"86":-0.11435011738365772,"87":0.0966031936645585,"88":0.14681327616576206,"89":-0.11935183832302813,"90":-0.16871438570723893,"91":0.16187747501025315,"92":0.03532866654812656,"93":-0.0624827326471676,"94":-0.03983994365104387,"95":-0.14680302751655702,"96":-0.16007185890028364,"97":-0.021192466011639793,"98":-0.102016219625971,"99":0.17867541706614615,"100":0.15404615558170853,"101":0.006780118801298352,"102":0.14308837587082435,"103":-0.10339430258115627,"104":0.1460535713594573,"105":0.05193891182928902,"106":0.12823772000799488,"107":-0.04942607242591844,"108":-0.06993087986233251,"109":0.07282262502040654,"110":0.039744958631565144,"111":0.09359292455201124,"112":0.0031571853754420822,"113":-0.1390397327739393,"114":-0.12854876536001203,"115":0.006733721159624433,"116":0.00530925123374194,"117":0.08509800789291162,"118":-0.07333649530970494,"119":-0.17364628778489005,"120":0.10516337644988046,"121":-0.04668623647451922,"122":0.18093636187851347,"123":-0.041188162022681746,"124":0.09576914597657628,"125":-0.15822016612656728,"126":-0.03251600801051161,"127":-0.1811726506229978,"128":-0.12121384571543657,"129":0.10772170941587644,"130":-0.19354664329875002,"131":-0.0192524456461178,"132":0.15435704309829834,"133":0.12058272551457339,"134":0.11964837391034211,"135":0.12780207802537147,"136":-0.14269466759889451,"137":-0.038622185495587505,"138":-0.13005514289832637,"139":0.012746686008849104,"140":0.1341179174733509,"141":0.029850376919773464,"142":-0.13907187460776388,"143":-0.1895195216064111,"144":0.13641042554262742,"145":-0.08277675371426182,"146":-0.06560773767442207,"147":0.023621527146524268,"148":0.17418057906138576,"149":0.0025786612992987575,"150":-0.159061154132466,"151":-0.06760847768391348,"152":-0.13879079083878443,"153":-0.03909087092178338,"154":0.17659812627003238,"155":-0.15536842963028716,"156":-0.14244678883409698,"157":-0.1803459998670947,"158":-0.17761396357462403,"159":0.14865166833413915,"160":0.20247170448709942,"161":0.06395954033370485,"162":0.18322141696558766,"163":0.1100883370372907,"164":-0.1429088535493422,"165":-0.07317398242347466,"166":0.17031908402035656,"167":-0.06324868457909864,"168":0.17597836946990192,"169":0.005184781948874076,"170":-0.12746626255122617,"171":-0.12449022253838721,"172":-0.10747363678959265,"173":-0.1273000774107301,"174":0.08888613171644953,"175":0.19865035628677422,"176":0.13679823518030101,"177":0.037638056343393574,"178":0.07608235131005357,"179":-0.04927321274848997,"180":-0.165544872613918,"181":0.00037678430670278547,"182":-0.007443019386922217,"183":0.11001597864742767,"184":0.16143135896180225,"185":0.018531770890734614,"186":0.04347904171624185,"187":0.0734717181896236,"188":0.1986097859105477,"189":0.15896339141483815,"190":0.03600560740556958,"191":0.16740911810131384,"192":0.12767878868727547,"193":-0.00899624302930211,"194":0.19920165630786466,"195":-0.02850804864127738,"196":-0.15945582356769805}},"11":{"bias":0.0953033690534309,"weights":{"0":-0.13626068488365312,"1":0.07549313288961823,"2":-0.04864268674102821,"3":-0.0989180438811377,"4":-0.12719129180475838,"5":-0.23135805930518163,"6":-0.173863433805781,"7":-0.024695097491522055,"8":-0.022165643191758802,"9":-0.20261936284406915,"10":-0.23609580264229837,"11":-0.10149615636012144,"12":-0.13203142726362074,"13":-0.21408450658597336,"14":-0.2057412903288955,"15":0.03184325733207888,"16":0.07775293719293525,"17":-0.22375755762282504,"18":0.037348146189740423,"19":-0.11860395801664406,"20":0.11716363942638529,"21":-0.09982753640738529,"22":-0.12703268127338102,"23":0.021688056200614408,"24":-0.019751742951775716,"25":-0.19281368055611103,"26":0.0565422496512898,"27":-0.1628696260248609,"28":-0.20482222692282145,"29":-0.21294936967337186,"30":-0.18287320238113317,"31":0.13984100123503185,"32":0.1170067802985547,"33":-0.13679213704712045,"34":-0.11877909078942449,"35":-0.02148431736422122,"36":0.09315587830429153,"37":0.023092668445279452,"38":-0.053594863051553,"39":0.18234031434251738,"40":0.04740976194742191,"41":0.1254626534005779,"42":0.20552313073616796,"43":0.06272613988382643,"44":0.03017472162797517,"45":0.011326268762723309,"46":0.1676679897162538,"47":-0.13104681067266585,"48":0.14519467368416736,"49":0.12888810701596115,"50":0.14998023487416243,"51":-0.0011710701940070396,"52":0.07795213324323828,"53":0.1491096042678498,"54":-0.08232969668254773,"55":0.11542450545490862,"56":0.0878924250753334,"57":0.025232085857893025,"58":0.201041534712701,"59":-0.14639859670365743,"60":-0.016710042048899195,"61":-0.15284672802197913,"62":0.016079200346327878,"63":-0.12205129512763466,"64":0.20054015310135712,"65":0.06257361085850247,"66":0.12174960241605402,"67":0.19726096570257765,"68":-0.06044748005771933,"69":-0.007361571187417335,"70":0.13309472889487736,"71":-0.024324960606455583,"72":-0.1890141411376092,"73":0.11294338179572837,"74":-0.12792610476281963,"75":-0.11776363449507922,"76":0.15875735302702507,"77":0.007556552641191124,"78":0.09002081701785654,"79":-0.16369399860277994,"80":0.0010459464444576034,"81":-0.14814191877489483,"82":-0.15432501249098576,"83":0.01307412175792056,"84":0.20840781202978567,"85":-0.16514134920255646,"86":0.11146969604085037,"87":-0.10486997264028773,"88":-0.04948965804376706,"89":-0.1332817858602876,"90":-0.1024426038699816,"91":0.05933742119328506,"92":-0.04351818586449901,"93":0.18470863145972757,"94":-0.013664646981035668,"95":0.1209779771664863,"96":0.1578562925765006,"97":0.16456565181407115,"98":-0.18549863759726817,"99":-0.06018163948407181,"100":0.16785337546051818,"101":0.02425212026696303,"102":-0.05949939443397593,"103":-0.03833946157346369,"104":0.08754441668462012,"105":0.19431544427295075,"106":-0.17254362699491574,"107":0.15249986759294912,"108":0.07678254523056424,"109":0.04891887286737586,"110":-0.1587293199009797,"111":0.05947532550630335,"112":0.015722469207387877,"113":-0.1319057539707038,"114":-0.13284032097566667,"115":0.14623698898398635,"116":-0.012938435634713308,"117":0.04203524629712993,"118":0.10987468659682491,"119":0.03702193028670844,"120":-0.043947726546221894,"121":-0.10720451279483031,"122":-0.1594972650275217,"123":0.033850876935325624,"124":0.11314191316126214,"125":0.02194091899404693,"126":0.13020388845433226,"127":0.13437593532361453,"128":0.14321230987722094,"129":0.18866858283073684,"130":0.19215202984052043,"131":0.144867235867983,"132":0.029330431566682302,"133":0.1564937177398622,"134":-0.051272381360100344,"135":-0.17540097993177323,"136":0.20337081262661183,"137":0.15626035774180086,"138":-0.007851423652206127,"139":0.10938492615869824,"140":-0.10827444313074926,"141":0.055884228389125074,"142":0.19941313237509017,"143":-0.17320019736653697,"144":0.008698629021910053,"145":-0.05732692663810651,"146":-0.018148122490544205,"147":-0.12856757251104528,"148":0.0023718405102647563,"149":-0.1637549134147356,"150":-0.11463248085949637,"151":0.14859309354428687,"152":0.1141388855869227,"153":0.10425422828798037,"154":-0.010637054444762649,"155":-0.15372306603698388,"156":0.08788258278225797,"157":-0.19031473956412998,"158":-0.14615771628542973,"159":0.10441734484493126,"160":-0.07555505204246295,"161":0.20550255188069158,"162":0.09147092367273735,"163":0.08254737437831544,"164":0.1795442739441572,"165":0.16488847803677217,"166":0.1188019805523047,"167":0.05180568826266527,"168":-0.014800457663613742,"169":-0.0038863812884546802,"170":0.14300925119938643,"171":-0.176394679550097,"172":0.0164102835198931,"173":-0.0244797170414564,"174":0.05025712925496616,"175":-0.014281609939448216,"176":-0.010076053236054892,"177":0.11012830326162279,"178":-0.04850501466955108,"179":-0.08682805122422219,"180":-0.008071995283340018,"181":-0.0981189675376259,"182":0.059155741430708994,"183":-0.000705919810370527,"184":-0.05493814130924814,"185":-0.07151847977572232,"186":0.04946572325039443,"187":0.1241195055672806,"188":0.06946733789783457,"189":-0.1514766242958498,"190":-0.0007278847421236867,"191":0.11440309406823077,"192":-0.1486801997911758,"193":0.0018498521968416917,"194":0.07563935904371483,"195":0.04466028613282397,"196":-0.03206853211944877}},"12":{"bias":0.011616148575475724,"weights":{"0":-0.11039054355550713,"1":0.14511938561437662,"2":-0.21081645677784164,"3":-0.08780392506808261,"4":0.11795783780115608,"5":-0.03754491834147665,"6":0.0354770148856559,"7":-0.04412577974097123,"8":-0.18916150413488217,"9":-0.042285014968085434,"10":-0.19131242036387744,"11":-0.09986872594359987,"12":0.0805921173679061,"13":0.027427398862960282,"14":-0.11890809696609984,"15":0.12251378626826301,"16":-0.07545818821921836,"17":0.06331051769007832,"18":0.113656232621776,"19":0.020333316338383225,"20":-0.03251681670440805,"21":0.07145941184562402,"22":0.17090637091117983,"23":-0.00958354472023652,"24":0.03829266576916994,"25":0.16164778791805587,"26":0.1856409995221186,"27":0.21033260827479683,"28":0.22996896886457935,"29":-0.03133028911481041,"30":0.11047724273366558,"31":0.14227296917982757,"32":-0.07154491680047993,"33":0.04928047604652333,"34":0.11176933781468913,"35":0.014436226225539204,"36":0.17699329204916114,"37":0.17068195444118991,"38":0.14191233051892466,"39":-0.16703601855337752,"40":-0.2187934379839049,"41":0.06182422854523476,"42":-0.11883437920150902,"43":-0.20048335277145993,"44":0.025385852074391927,"45":-0.08529615042619551,"46":0.08660926445313008,"47":0.17692228752102268,"48":-0.18373603906314756,"49":0.14097461903541725,"50":0.06842440773425802,"51":-0.16129407578330476,"52":-0.19405386679454187,"53":-0.16824714930210447,"54":-0.10934679850386943,"55":-0.1961120391781458,"56":-0.0678488156924146,"57":-0.044849301193519396,"58":0.09781016138569446,"59":0.06851640707675924,"60":-0.1628751284861998,"61":0.12473476663516142,"62":-0.10943875745549358,"63":0.021366113939096088,"64":0.04858806677721409,"65":0.13996916975131735,"66":0.12596596249886974,"67":0.14049801709406362,"68":-0.042164256936632304,"69":-0.09053507729611886,"70":-0.018245432597010627,"71":0.1625742098205053,"72":0.0923306422127724,"73":0.04057043000247849,"74":-0.0713255710671265,"75":-0.08628797645690897,"76":-0.12584961423902674,"77":0.09964564105953658,"78":-0.09803900730692466,"79":0.10161800152992653,"80":-0.03520790334294058,"81":-0.17579029746534436,"82":0.13057715137438178,"83":-0.16548752725511454,"84":-0.14233936818891554,"85":0.11983384759298386,"86":0.1607408158132779,"87":0.166445652616365,"88":-0.20722943539487962,"89":-0.17972323180356972,"90":-0.041347405914215776,"91":-0.20385231591194078,"92":0.05901916620787934,"93":0.1637787860015338,"94":-0.16238484622333774,"95":-0.014953179349868494,"96":0.07718849014018138,"97":-0.16430566500387264,"98":0.09678815291510924,"99":0.037122025904305536,"100":-0.16292795891597567,"101":-0.036996049130861866,"102":-0.02380106460440178,"103":-0.09912824478038133,"104":0.02720859525589812,"105":0.03604568239554594,"106":0.0838982170820556,"107":0.08454271347198462,"108":-0.06428041622444867,"109":-0.14242630903584955,"110":-0.07568708400768932,"111":0.18125620557905725,"112":0.18959052250838346,"113":-0.12813573306056147,"114":-0.18044845119646444,"115":0.0279454878299109,"116":-0.1445836214551309,"117":0.06080513834041018,"118":-0.18526017125303332,"119":0.1246556641637029,"120":0.09986787277750463,"121":0.027121111256323483,"122":0.12836695011812113,"123":-0.03586421973707243,"124":-0.14625170775193438,"125":0.04313412621427696,"126":-0.18387510354387865,"127":-0.15106938889365676,"128":-0.017803885861175126,"129":-0.14577113508047496,"130":-0.03693117141631694,"131":0.09748477473280993,"132":-0.03814108933908439,"133":0.09979770417304697,"134":-0.18851881998536318,"135":-0.010894527065718623,"136":0.03519755981563541,"137":0.1682791342553892,"138":-0.19122430723052314,"139":0.07916438897540552,"140":-0.044735137457942026,"141":-0.05368072344670216,"142":0.13362781107857885,"143":-0.09977323018595996,"144":-0.18067414354208394,"145":-0.14898018888104644,"146":-0.17903807588128146,"147":0.04849290696118245,"148":-0.13128432230757497,"149":-0.10194844016987831,"150":0.08941170690061283,"151":-0.1932373939507647,"152":-0.017970921520491522,"153":-0.18237256284187753,"154":-0.023999372955528554,"155":-0.20022358604683116,"156":0.010741214043033992,"157":-0.10916739469806008,"158":-0.03754566389332506,"159":0.07772646067798038,"160":-0.03771597497319293,"161":-0.028459224471562728,"162":-0.04742902878404681,"163":-0.16824376870113325,"164":0.007467718060282672,"165":0.062452233496931124,"166":0.007056055950251421,"167":-0.011162509345340122,"168":0.04704271477477448,"169":-0.007153880814174918,"170":-0.053959687196516004,"171":-0.05064018637185708,"172":-0.13421738512354062,"173":0.036516226008817425,"174":0.09847281665113596,"175":0.05231273695864782,"176":0.13418053911358538,"177":-0.1552014841500918,"178":-0.10457025293553454,"179":-0.04301126948001461,"180":-0.183888335640867,"181":-0.01687293712744731,"182":0.11454685672546001,"183":-0.001426159707659036,"184":-0.10195238356972573,"185":-0.19203546970678498,"186":-0.0818930808316163,"187":-0.02473223003573253,"188":-0.03448176884629512,"189":-0.1588247446197015,"190":-0.0878443869503816,"191":-0.08525258563876076,"192":-0.11026270084433097,"193":0.17419632814346753,"194":-0.008196377664954454,"195":-0.16125791792115035,"196":0.17127407630411773}},"13":{"bias":-0.10542061960059385,"weights":{"0":-0.16031952831930585,"1":-0.13204599720833943,"2":-0.23056186221318836,"3":-0.03784456190674078,"4":0.13245073756889925,"5":0.05459120479299519,"6":0.11229797109446892,"7":0.10604057288779707,"8":0.13035825044276006,"9":-0.05400039537684872,"10":-0.2131882236363695,"11":-0.01838309234743676,"12":0.10367451400243853,"13":-0.23389263207414854,"14":0.11125154634269313,"15":-0.15328964396691433,"16":-0.056410468449526484,"17":-0.1033820790876718,"18":-0.013596085801820031,"19":0.11612416830269695,"20":-0.06972653460744582,"21":0.23580796120036995,"22":0.15182226383862923,"23":0.05319090075740909,"24":-0.1360953137438945,"25":-0.08271531697095147,"26":0.19890687365523685,"27":0.19613892081750212,"28":0.17921304167707153,"29":-0.043246732137819995,"30":0.1734177283839234,"31":0.2685215425211752,"32":-0.0811590327848751,"33":-0.053674542464951056,"34":0.12370094506753726,"35":0.01153105652036249,"36":-0.09499825571692985,"37":-0.15321550322323807,"38":0.07700644953966895,"39":-0.10082874427871989,"40":-0.08431972313336689,"41":0.18375179583518544,"42":-0.011410118910735864,"43":0.09493874479659307,"44":0.20861345588280575,"45":0.2248478086367863,"46":0.03226385581427644,"47":-0.03210885823455116,"48":0.07847482712523765,"49":0.13299527230770022,"50":-0.07177181286346544,"51":0.19983912625067438,"52":0.08892754877355338,"53":0.11898268134665518,"54":-0.138981979618866,"55":-0.062470637258401886,"56":0.20455724910964998,"57":0.02627371242712282,"58":-0.10399431664602828,"59":-0.03669112885837994,"60":0.1332672679720208,"61":-0.1546549010375334,"62":-0.20844325773068664,"63":-0.1604333264355092,"64":0.03813753126397207,"65":-0.1503261149788824,"66":0.11913314933137607,"67":-0.18611908611469222,"68":-0.19364457890450504,"69":0.03183794588266791,"70":-0.084699358253013,"71":-0.1707814405967534,"72":0.1349179057592633,"73":-0.1579063829905685,"74":0.07502364211968696,"75":-0.01624478596221163,"76":0.03894364354188378,"77":-0.17183563498172172,"78":-0.05240285533689342,"79":0.07668242084151293,"80":0.006146322409088613,"81":-0.18480814629292008,"82":-0.09362016895412965,"83":0.03795523234686236,"84":-0.15175719486183498,"85":-0.04117270226645805,"86":-0.038437109665055015,"87":0.1529585454477047,"88":-0.04382287635212056,"89":0.08737896726562243,"90":-0.07525351150629654,"91":0.18031794596383682,"92":0.09943182223609308,"93":0.04788349818485053,"94":0.17533267704409672,"95":-0.15184651066547822,"96":0.014784727159168341,"97":-0.0808997666791509,"98":0.011650349370420867,"99":-0.09019943446305911,"100":-0.11641073612332972,"101":0.1342600225039373,"102":-0.1880847447141272,"103":-0.12365542121629122,"104":0.15331715360406387,"105":-0.04579295439963161,"106":-0.17507228679101652,"107":-0.10131876830397017,"108":-0.12037661907877546,"109":0.010224906311187056,"110":-0.06236176692325375,"111":-0.1598049025809647,"112":0.11957270725072747,"113":-0.14953123750720965,"114":0.11389034895104297,"115":-0.03700771487897266,"116":0.13966672297199184,"117":-0.1487542143465186,"118":-0.06718844039470799,"119":-0.054960869055217895,"120":-0.0016821511537808173,"121":-0.1890909059522321,"122":0.11248364282223447,"123":-0.05029235304928496,"124":0.05127143405405353,"125":0.07444961308251116,"126":-0.05509051848618051,"127":0.03529572832868784,"128":-0.06588881673188741,"129":-0.18967930394809263,"130":-0.07874997737097099,"131":0.19259417331517975,"132":0.053527971312687765,"133":-0.07048273347512717,"134":0.054243843558677333,"135":0.056790404558666734,"136":0.10445216377779833,"137":-0.12625502159420002,"138":0.14661591443825434,"139":-0.08859226443619066,"140":-0.04502578348224893,"141":-0.030605258583585548,"142":0.1339441160475897,"143":0.10596742621936907,"144":0.14338975193383866,"145":-0.018516050381169522,"146":-0.05635909085749272,"147":-0.1333761041111952,"148":-0.06527232216484719,"149":-0.08295821050557171,"150":-0.11022422831670262,"151":0.04153973590049371,"152":0.12138624951294522,"153":-0.057211462103837034,"154":-0.04850523743237494,"155":0.09345218402379481,"156":0.010124630578352929,"157":-0.1699945484442866,"158":0.10481065928594548,"159":0.09618267954195227,"160":0.030728030497966685,"161":-0.1456138134976147,"162":-0.20207495076725837,"163":0.0076217564082651885,"164":0.14789588328984057,"165":0.12477889559093767,"166":-0.009980818122728781,"167":-0.04344955506222836,"168":-0.0765050466752201,"169":-0.03671183859007909,"170":-0.041929819391254064,"171":-0.04143496001075045,"172":-0.1307335785397068,"173":-0.1353830121184934,"174":-0.017139836169873666,"175":0.046609619521478816,"176":-0.05031613575243946,"177":-0.14749582705747963,"178":-0.1336919549420003,"179":0.18639531522457056,"180":-0.09121129961933068,"181":-0.08609752994077534,"182":0.14040441806155127,"183":-0.08117851373874964,"184":0.1629376091730648,"185":0.05156734808188009,"186":-0.024135672786724346,"187":0.15141608746777283,"188":-0.11356729877003165,"189":-0.01156614883978254,"190":-0.15701737132403445,"191":-0.1356850925758645,"192":-0.014623411598701293,"193":-0.02359251227860781,"194":0.0661633808446587,"195":0.004219374945534192,"196":0.052689725626990966}},"14":{"bias":-0.17813044282978172,"weights":{"0":-0.09575246455373664,"1":-0.14370874756762214,"2":-0.18178906973468512,"3":-0.2511833812904828,"4":-0.19775289123689604,"5":-0.10239146515148116,"6":0.023301418957637415,"7":-0.10813771972753118,"8":0.025882709919749912,"9":0.07037802774924203,"10":0.06306795668006747,"11":-0.1435680390706215,"12":-0.11361358259600338,"13":-0.20815966896603688,"14":0.13673009205869607,"15":0.10742671652175378,"16":0.06108934726016566,"17":-0.1825630229624663,"18":-0.19077446979757573,"19":-0.06761951013950139,"20":-0.03163468753813397,"21":-0.038473834839233216,"22":0.06957878913566393,"23":-0.06770572446911097,"24":-0.23303730217825697,"25":0.029065925509936717,"26":0.12867085628802385,"27":-0.227933480791966,"28":-0.04089868930325512,"29":-0.06307055228645579,"30":0.15815995532039603,"31":-0.007031463183169902,"32":0.1290999498042825,"33":-0.17537568702878645,"34":-0.11352509687347243,"35":0.09943331950410346,"36":0.0879064784875887,"37":-0.012870496161687808,"38":-0.06758615004059862,"39":0.1574854689261324,"40":0.22624934949202313,"41":0.18300432296074035,"42":0.254463100426487,"43":0.21156256263486645,"44":0.20787626506817963,"45":0.13581433430790957,"46":0.15174826631200516,"47":0.18748820965051866,"48":0.20117668858448,"49":-0.105306376541511,"50":0.03262904177952769,"51":0.07357619752100522,"52":0.09665144480064913,"53":0.1754242154432731,"54":0.15878795371301524,"55":0.2584388847458857,"56":-0.04467338683689005,"57":-0.1089534596304513,"58":-0.19557970300029728,"59":-0.1627071422797888,"60":0.07466769011957011,"61":-0.0923039781738199,"62":0.09346295343662037,"63":0.061282474318287455,"64":-0.16337672472038747,"65":0.17301229642846266,"66":0.12672840758262766,"67":-0.17224403541394967,"68":0.0922604003127919,"69":0.044196216990517075,"70":0.10213185361165136,"71":0.09851053760498782,"72":0.09474063356133092,"73":-0.12857977567141485,"74":0.03777852907222249,"75":-0.12349244787627846,"76":0.0944097893586982,"77":-0.10662096869919262,"78":-0.19476604722392746,"79":0.18644991988798523,"80":0.01302981380440223,"81":-0.12797932809257376,"82":0.15724037473770672,"83":-0.11615071814595494,"84":0.09253606831262744,"85":-0.18321652786500656,"86":0.05329783802836986,"87":-0.13764785795367518,"88":0.11532284076504404,"89":-0.18015838676962936,"90":0.12569184041995524,"91":0.032072410487497205,"92":0.19177329951584624,"93":0.1796454773820508,"94":-0.12946119003439396,"95":0.06364390806287935,"96":-0.1672736337752773,"97":-0.13478747297718277,"98":0.049281363314511654,"99":0.16666993541800904,"100":-0.10922492029613787,"101":0.009589185060633368,"102":0.16682571991185627,"103":-0.09925867623156122,"104":-0.10020546980201563,"105":0.08119646765770587,"106":-0.17579261372192967,"107":0.001242707159098877,"108":0.04606949779973223,"109":-0.1621587951042345,"110":0.08901025490840662,"111":0.05921056496364329,"112":0.10961918561185946,"113":0.032976787996558427,"114":0.14883883817314675,"115":0.09033003676976442,"116":0.16993613398474905,"117":-0.0729291687514417,"118":-0.01961604611130781,"119":-0.052711278421422446,"120":-0.09150843287041871,"121":0.110938703066157,"122":-0.012187406328462507,"123":0.031818232978221346,"124":-0.08260990878961956,"125":-0.10396531281786835,"126":-0.12571511208198147,"127":0.02660512823026019,"128":0.18219698221777875,"129":0.1293689937445476,"130":0.03006535519923763,"131":-0.09993288281405188,"132":-0.13280036182284002,"133":0.18908808678141822,"134":0.0582609245164162,"135":-0.10533534970458926,"136":0.120478024965588,"137":-0.015036868983960405,"138":0.06623792870645016,"139":-0.12822766244267228,"140":-0.08641791013264954,"141":0.017163108987006587,"142":-0.04274281698784172,"143":-0.026781601482082043,"144":0.1467131721497524,"145":-0.12579635251967533,"146":-0.12909240058271096,"147":-0.02009268687300256,"148":0.18606380178278892,"149":0.021632549130600094,"150":-0.013001708124336125,"151":-0.15446976089127668,"152":-0.12730270865603477,"153":-0.10182402366630122,"154":-0.11971533736393701,"155":0.012790133304087792,"156":-0.1980277149440564,"157":-0.07271915746259301,"158":0.1889987566831116,"159":0.00521248090427828,"160":0.10704337470622795,"161":-0.008302223163910865,"162":0.1413539568642912,"163":-0.1771242251967772,"164":-0.12995699242515782,"165":0.05883980159697853,"166":-0.06864389969238983,"167":-0.13847328844205906,"168":0.018537332307986695,"169":-0.10030625656110756,"170":-0.09816562351754848,"171":-0.05229633554540344,"172":-0.019695637480967323,"173":-0.04353301622520971,"174":-0.12038300301111017,"175":-0.0634888996347571,"176":-0.19034498505546302,"177":0.17464426416594522,"178":-0.0957775012439996,"179":0.051508241373494947,"180":0.08448936148597296,"181":0.14344891126927614,"182":0.12468655280648756,"183":-0.015044293443363332,"184":-0.10498626672932986,"185":-0.1782225542339138,"186":-0.05949863223023368,"187":0.12784425758598503,"188":0.1673728179960681,"189":-0.019844838741554606,"190":0.09653157148722218,"191":0.09800169215957209,"192":-0.10559705544726451,"193":-0.1537060313005854,"194":0.15920448224815592,"195":0.11924481585047685,"196":-0.11240056328663571}},"15":{"bias":-0.05093977949032007,"weights":{"0":0.05725379547848396,"1":-0.010941816166919043,"2":0.0810670717855171,"3":-0.03712894651007363,"4":0.21170077795734982,"5":0.04322702681602506,"6":-0.016932224577024774,"7":-0.017105724533351702,"8":-0.05242012912709913,"9":-0.1575052160633744,"10":-0.09156113014595275,"11":0.20972200019785553,"12":0.20739966311363728,"13":-0.1258918384029401,"14":-0.09888446994208999,"15":-0.1514573361747669,"16":0.07891768106216575,"17":0.1336725014860418,"18":-0.11174815354194738,"19":-0.12179090149138325,"20":-0.23172811095613743,"21":-0.21544723346335068,"22":-0.14568982212991272,"23":0.0103113114342837,"24":-0.07730463711407158,"25":-0.05124326718808736,"26":-0.20559886628750978,"27":0.13038583158903996,"28":-0.09456454501215596,"29":-0.23250671815644725,"30":-0.2135659762144832,"31":-0.19877406483424054,"32":-0.12490995980972718,"33":-0.11927134756211262,"34":-0.22738415719366883,"35":-0.05640950712285171,"36":0.0358557652294984,"37":-0.02273714666507893,"38":0.17087665100599225,"39":-0.21420568199075682,"40":-0.2283544040783361,"41":-0.18339905783197924,"42":-0.03568985702299714,"43":-0.12779187162108235,"44":0.15603705682163357,"45":-0.011044495192255808,"46":-0.1585750013223664,"47":-0.18586880916420054,"48":-0.12620341929733594,"49":-0.05250154756679075,"50":0.13485413993681816,"51":0.07785844347339063,"52":-0.1662855474272876,"53":-0.13900256419513543,"54":-0.20615176896169038,"55":0.04809031062962922,"56":-0.22119171828543158,"57":-0.045747785409564534,"58":0.07923602074048187,"59":0.169641972379208,"60":0.03471292118740893,"61":-0.008252918968886915,"62":-0.01959681661164592,"63":0.2019756517087711,"64":0.0883103986806081,"65":-0.15938505681419,"66":-0.08402446329093254,"67":0.1615461444156351,"68":-0.14067721757232995,"69":0.11520461698291669,"70":-0.01812285682863917,"71":0.18930483707888465,"72":0.1196694925656069,"73":-0.13207513860628484,"74":0.1234418748427882,"75":0.18527418369710255,"76":-0.08570726007994744,"77":0.16706078807827335,"78":0.03248411310062316,"79":-0.022837286818818126,"80":-0.10542642036101452,"81":0.09137319418458278,"82":0.0962164337772316,"83":-0.08831482792262839,"84":-0.0922139879346412,"85":0.1682267564201626,"86":0.10861197335104729,"87":0.15269956609417784,"88":0.10269277888151426,"89":0.11788073809272626,"90":-0.17577599608709432,"91":-0.1389784201436751,"92":-0.11135663643282566,"93":-0.12937697441480245,"94":0.011140946760347952,"95":0.05337500180258538,"96":0.1953073419428764,"97":-0.014258580899893012,"98":0.08402363090013848,"99":-0.10731992739748461,"100":0.1747504759948874,"101":0.13121971250970615,"102":-0.08729596441713428,"103":0.09523826508783184,"104":0.18827640808333607,"105":-0.09980659741490827,"106":-0.14837962977669725,"107":-0.10723155098708315,"108":0.06234295355703578,"109":0.19585369373845934,"110":0.1471707572569016,"111":0.08491743913684513,"112":0.007246031740620028,"113":0.1104968079369547,"114":0.13500232198427445,"115":0.07758453305905243,"116":-0.1565254103888081,"117":-0.030987216921954504,"118":0.053762258473507095,"119":-0.0023497727254542717,"120":-0.13284522359534975,"121":-0.12337634645621504,"122":0.03529121904557696,"123":-0.019064858133041044,"124":0.1477141818619718,"125":-0.11242510392296039,"126":0.04551419901838541,"127":0.2094244282092366,"128":-0.017057277115807127,"129":-0.13932169884188025,"130":-0.055282015191540024,"131":0.07871865821112109,"132":0.029814306105414818,"133":-0.17776554168907568,"134":0.15636129920085323,"135":0.04680801645157528,"136":0.0007481458090322103,"137":-0.17901762678258387,"138":-0.11072115222300657,"139":0.021758942889789707,"140":0.08733273122925214,"141":0.02785968114123912,"142":-0.08136458309203976,"143":0.027954585726989934,"144":0.12962452750847797,"145":-0.08223102374639923,"146":0.08638726687915702,"147":0.02980651665791374,"148":-0.01203660935445058,"149":0.059875160814041296,"150":0.19072655493006338,"151":-0.07572329518125226,"152":0.10439347102638441,"153":-0.1720239090859711,"154":-0.1001597536647047,"155":-0.10444031902310294,"156":-0.056824538379757754,"157":0.10336492321485158,"158":-0.03591886571536944,"159":0.1029799763956708,"160":0.1891551587429944,"161":0.10981259855872627,"162":-0.16114025034035684,"163":-0.08282945109541288,"164":-0.16677022583834336,"165":-0.10162647995682593,"166":-0.12644320498542255,"167":-0.04795804355051717,"168":0.16543629760840867,"169":-0.1348461880426817,"170":-0.0669043194624301,"171":0.15245234801697677,"172":0.15832106967180626,"173":0.049064552828941885,"174":0.19923804035684786,"175":-0.059701126332662204,"176":0.1543964042897423,"177":0.018403780441791334,"178":0.12743386220819164,"179":-0.0013884946876757656,"180":-0.08196957739425557,"181":-0.03643494809125088,"182":0.04316765713734216,"183":-0.16450111446824553,"184":-0.009648997890225807,"185":-0.07910033386697767,"186":0.2049099775725702,"187":-0.029595748843628394,"188":0.1680067231808325,"189":0.07752594523752042,"190":-0.1004150581229709,"191":-0.12899711755999135,"192":-0.05400792519243922,"193":0.0714100977796549,"194":0.1940943954033698,"195":0.16757642915633086,"196":0.022002187921047144}},"16":{"bias":-0.16513013630140072,"weights":{"0":-0.21089985848576195,"1":0.10745327180478807,"2":-0.16557368676505493,"3":-0.10827470553630243,"4":0.13787543939432098,"5":0.16826289654733942,"6":-0.04953029169073936,"7":-0.13095226117428072,"8":0.15514377029025075,"9":0.019422472913850138,"10":-0.09718635069778182,"11":-0.12680988053206255,"12":-0.11562394543554429,"13":-0.00030538701026384084,"14":-0.06775193772453446,"15":0.166489215280038,"16":0.005758988678542463,"17":-0.028330234993517698,"18":0.07424673926809076,"19":-0.1067575604449631,"20":0.13559869066318214,"21":0.1029584161567255,"22":-0.005505669665554335,"23":-0.015287289963240684,"24":-0.007095000130921339,"25":0.1443125826969294,"26":0.2074402465287693,"27":0.04439315748428837,"28":-0.022456416619459383,"29":0.13116095305137615,"30":-0.02060777099670499,"31":-0.15678395771530435,"32":-0.00594355917767769,"33":0.06404886624353379,"34":0.18103089049108415,"35":0.03300822983214923,"36":0.05785006398190338,"37":-0.024138949112382024,"38":-0.1143221383015802,"39":-0.2159155474576704,"40":-0.15108896484771703,"41":-0.20227460495861904,"42":0.07848186806172218,"43":-0.17632911207675564,"44":-0.19189071592512152,"45":-0.17261122621875333,"46":0.1106346906440844,"47":-0.022881320677062392,"48":-0.17356026511974584,"49":-0.025203657829297347,"50":0.08184240309630277,"51":0.09600229860799628,"52":0.0066335330114587025,"53":0.06697607174331936,"54":-0.17979964409514929,"55":0.06422927601351268,"56":-0.047663287618668816,"57":0.1679281222542243,"58":-0.05184730190488661,"59":-0.06252250270135354,"60":-0.020599906958197075,"61":0.0784564730524124,"62":-0.02585688332708199,"63":-0.17431136355106516,"64":0.031852965291448085,"65":0.13129346249467852,"66":0.14085499023976059,"67":0.15289564345647502,"68":0.11300146203828146,"69":-0.03222653045452657,"70":-0.03900261112134164,"71":0.08505415413060505,"72":0.02956416238102705,"73":0.0484927618355966,"74":-0.12051633195727682,"75":0.08251186815876504,"76":-0.14083559420943187,"77":-0.16740049902270251,"78":-0.011649801571849415,"79":0.12705292224778492,"80":-0.02428414664817645,"81":0.0061751785630643295,"82":-0.030898562838026073,"83":0.1773806799106955,"84":0.025252605170187806,"85":0.1225162220735399,"86":0.13127018938591262,"87":0.003919952602906995,"88":-0.11908045190507519,"89":-0.016133679170647217,"90":0.14148264420594814,"91":-0.0013427235044782232,"92":0.006579666340614835,"93":0.1765664376954792,"94":0.1226120646788656,"95":-0.08246711843953983,"96":-0.03847791211942812,"97":0.1060477314985386,"98":0.026582562843420046,"99":-0.04547605273657772,"100":-0.08373913640335237,"101":-0.0369568836772695,"102":-0.014976875892367488,"103":-0.010014251930948674,"104":-0.17363965383680624,"105":-0.040227086850528074,"106":0.15959864474313512,"107":-0.06343787175073629,"108":-0.05978329389160468,"109":0.13579394477089163,"110":0.1253471816708052,"111":0.013086893499487058,"112":0.19596913307661007,"113":0.1889314866628376,"114":-0.07005969579739302,"115":-0.039815341704144996,"116":-0.007377947615384471,"117":-0.016511603349411014,"118":-0.10226203300914062,"119":0.09712414615246848,"120":-0.08132707322734115,"121":-0.17011191922408997,"122":0.06527396896206841,"123":0.02119622317914423,"124":0.051870783829063766,"125":-0.09939908935143832,"126":0.009501048175737766,"127":-0.047678812784161195,"128":0.027539599116132924,"129":-0.1691218760730173,"130":-0.05128501926638166,"131":0.16679932955880974,"132":-0.14495976341106961,"133":0.00577299602949574,"134":-0.045884022424321,"135":-0.15798937940195018,"136":-0.04046831711335528,"137":0.15426072568319635,"138":-0.11504277856213543,"139":-0.0315711889030467,"140":0.09881700515220261,"141":-0.17772526455673673,"142":0.19862430108842608,"143":0.05137508504193707,"144":-0.1850512801200841,"145":-0.013190978503879514,"146":-0.18944017197954616,"147":-0.014547747716856397,"148":-0.08905406366667211,"149":-0.0033553344934516673,"150":0.01735532454850623,"151":0.1541783294886261,"152":0.17957284981111393,"153":0.19866661624322873,"154":0.015443578461273201,"155":-0.01336474555902909,"156":0.14377065818427104,"157":-0.132952422792525,"158":0.08867074132790076,"159":0.1283098251184922,"160":-0.14500189824504273,"161":-0.17154767180087202,"162":0.1155887112632919,"163":0.1454860790324679,"164":-0.057357239118937385,"165":-0.08512916507786764,"166":-0.1100706149721379,"167":0.1613669552323976,"168":-0.18260140439869585,"169":-0.000664722066860813,"170":0.11623668769029881,"171":-0.16014895735783283,"172":0.08456739102520582,"173":0.005621757414742794,"174":-0.1830839223510028,"175":0.055255171756388374,"176":0.12927133477188785,"177":-0.15699858409547648,"178":-0.11694888390370303,"179":-0.13941996157403705,"180":-0.029667540806959797,"181":-0.09162888009263162,"182":0.14667520915463184,"183":0.08178829765664439,"184":0.007546100342749129,"185":-0.11548310620425495,"186":-0.13392502705100162,"187":-0.06948615617222256,"188":-0.0767895592316937,"189":0.01027703234057535,"190":-0.0931206681229801,"191":-0.030677394101727373,"192":-0.034156748747977354,"193":0.0644504291798043,"194":0.13797619464376396,"195":-0.09429278872070003,"196":0.04059410822708357}},"17":{"bias":0.15319807168342783,"weights":{"0":0.1598701619252237,"1":0.038636657735396984,"2":0.16319687045033934,"3":-0.0058476493427241,"4":-0.029930490307386974,"5":0.2202952368220826,"6":0.1907078502348725,"7":0.21177266474574682,"8":-0.13603087286156726,"9":0.08733572206628927,"10":0.15965743447999445,"11":-0.09708448163487732,"12":0.06446509084282884,"13":0.006062665292278212,"14":0.1518246514874586,"15":-0.13938169780478057,"16":0.15223733423249472,"17":0.0011239601649282694,"18":0.19483480746301132,"19":-0.09253680260020086,"20":0.04832784806839661,"21":-0.0223323186279985,"22":-0.017210839594586868,"23":-0.029409988553331146,"24":-0.08200383519329417,"25":0.17159721106817136,"26":-0.03363412095070123,"27":0.1913940334798114,"28":-0.0023862673115320194,"29":-0.19782954296948,"30":0.1369182560278778,"31":0.07042963430185584,"32":-0.17443974110451393,"33":-0.026620610146498348,"34":-0.09439014356494684,"35":-0.1084598820443312,"36":-0.11250460130229765,"37":-0.15990587977130719,"38":-0.04820346109432839,"39":-0.1157668094578686,"40":-0.14822885130987326,"41":0.03667645121099907,"42":-0.21120387574137386,"43":0.05727928492300951,"44":-0.20858300830827126,"45":0.09907372190152974,"46":0.0865545263157832,"47":0.14669730828196667,"48":-0.09161218991370768,"49":-0.04387859881974283,"50":-0.051341518885188474,"51":-0.13054753772060845,"52":0.013301077561127538,"53":0.019335735078118015,"54":-0.01595457443778384,"55":0.04555841657485126,"56":-0.1851885306513038,"57":-0.20242706968453145,"58":0.13862520136581996,"59":0.004378031837327551,"60":0.03218429492589596,"61":-0.060247417985622234,"62":0.15439124928137582,"63":-0.07397633652715853,"64":0.004748916472066301,"65":0.1811680027559069,"66":0.0678893498763918,"67":0.17765170990059814,"68":-0.048102710464773255,"69":0.00555173411077266,"70":0.054855234544411505,"71":0.055646069386563815,"72":0.1271573775843836,"73":-0.11281165759622674,"74":-0.06192759979848887,"75":0.1598788565883362,"76":0.12302531194399495,"77":0.04993656033891144,"78":0.13331952096964123,"79":-0.13584326579035563,"80":0.028031832849554444,"81":-0.08078113839158456,"82":0.09233211527831701,"83":-0.1348990632401466,"84":0.11810700088785335,"85":0.18409750829835136,"86":-0.201468377232305,"87":-0.1632315340829155,"88":-0.14646572224529877,"89":-0.01931360767806,"90":-0.14644561024328812,"91":-0.1471744387685749,"92":0.07070458008144213,"93":-0.11592686088644483,"94":-0.12688243292234933,"95":-0.11948351433240255,"96":-0.11825350583538352,"97":-0.06991287959598963,"98":-0.07586971687008076,"99":-0.13328330021754892,"100":0.03050911725814023,"101":-0.14789814176958738,"102":0.07218809341271618,"103":-0.1655419120880588,"104":0.05582121140241701,"105":-0.19618916023612745,"106":0.08436544338615884,"107":-0.13453195252923628,"108":-0.09840902289059361,"109":0.08671223132743136,"110":0.17569691769386225,"111":0.08227369208838234,"112":-0.18180972822180777,"113":-0.11262910207408193,"114":-0.15652001766980983,"115":-0.042812590839428705,"116":0.01840935659822383,"117":-0.043672936582773464,"118":-0.025984764799813532,"119":0.12968373828108165,"120":0.09406760525151209,"121":0.1563906839930448,"122":-0.02446956183246542,"123":0.041707298311227464,"124":-0.08894605368274988,"125":0.1843663915634038,"126":0.10406301178745604,"127":-0.15772725734311055,"128":-0.08048537512231786,"129":-0.01980365571337151,"130":0.02516455487110491,"131":-0.04200201793061049,"132":-0.17994512544466765,"133":-0.17976857776648822,"134":0.05239631414882089,"135":0.150766834289151,"136":-0.18153387700611257,"137":0.06488220602476531,"138":0.09191341865578269,"139":0.18408527705314476,"140":0.09813196792557534,"141":-0.1783720481367699,"142":0.06060492330406696,"143":0.16381496374931148,"144":-0.1999481570301012,"145":0.0453046536013692,"146":-0.0634393324934297,"147":0.11681834246305303,"148":-0.0931694056850483,"149":-0.10071573863492482,"150":-0.0385882117095487,"151":-0.0003057130972486476,"152":0.18027502094522796,"153":-0.15495198787385947,"154":0.1064514039316651,"155":0.03378906468645355,"156":-0.04035603147178573,"157":-0.10649573608433516,"158":0.07138081943716693,"159":0.0569810575454175,"160":0.17305617741293644,"161":-0.12779234866339012,"162":0.07876446789638905,"163":-0.046359350261293335,"164":-0.02667477908514162,"165":-0.19550928457141017,"166":-0.20091759188902855,"167":0.15440332428876222,"168":0.06644681742304145,"169":-0.11814994922646926,"170":-0.12349819788471912,"171":0.1321246089533802,"172":-0.18401577110395967,"173":0.033797506692746046,"174":-0.13309970713038466,"175":-0.12121998960710029,"176":-0.18956692332230896,"177":0.12748410564971863,"178":-0.10155939913495106,"179":0.1192828214896474,"180":0.16227922717986365,"181":0.0796555122363387,"182":-0.17262545981388122,"183":-0.0910747850837431,"184":-0.06109274238018238,"185":0.1871183442777854,"186":0.14191297002405306,"187":-0.1454509386295534,"188":-0.15058893595124392,"189":-0.08312293790454368,"190":0.020185427201598393,"191":-0.09488494624472339,"192":0.060342284560397794,"193":0.1893457069778728,"194":0.07778745759630222,"195":-0.03180372531101239,"196":0.19858661046755285}},"18":{"bias":0.10061975328847524,"weights":{"0":-0.2422676507394499,"1":-0.003254367385734261,"2":-0.24033675290502343,"3":0.10021973271343058,"4":0.011581186555220096,"5":-0.17552137724137323,"6":-0.06944376216146854,"7":0.07660747692097394,"8":-0.1197096102361419,"9":0.11713431154120672,"10":-0.1193999062440329,"11":0.056794920356927354,"12":-0.06107619524242863,"13":-0.07602510434288877,"14":-0.18251017097365932,"15":-0.08947142503843308,"16":0.031181622641537798,"17":-0.06830459424467275,"18":-0.14805669444796446,"19":-0.2092331521109464,"20":0.11294071024645476,"21":-0.056090928700068585,"22":0.2238781381350279,"23":-0.10906449824687472,"24":0.005583858303513266,"25":0.09315419233040449,"26":-0.037431562702019056,"27":-0.11724396116969639,"28":-0.08368044209917291,"29":-0.09748186030395861,"30":0.07609962007989453,"31":0.10211492636760859,"32":0.08559855583923723,"33":0.17857697993347005,"34":-0.16643761032691926,"35":0.14276427099383263,"36":0.003758225467233878,"37":0.12311726917416933,"38":0.21510024268758002,"39":-0.05433796149599355,"40":-0.16194344616422363,"41":-0.10285975443836838,"42":-0.019581162449468774,"43":0.07026999760982332,"44":0.02228588106380838,"45":-0.058019693830342535,"46":0.1779495297813988,"47":-0.0007311690979175041,"48":-0.06572936562624701,"49":0.07913837503124176,"50":-0.15676953777321476,"51":-0.054852667794660644,"52":-0.05707598424132549,"53":-0.032123015331468226,"54":-0.20982331457371195,"55":0.05533109079016273,"56":-0.06305465260930478,"57":0.06772786497108942,"58":-0.11993611818939728,"59":-0.12871164632684168,"60":-0.13256838523952627,"61":-0.008134996589329976,"62":-0.022948688553305268,"63":0.03946511653986014,"64":-0.07413132463654563,"65":-0.18375057771926848,"66":0.16323490435263707,"67":-0.18789628031294658,"68":-0.168257117022403,"69":-0.17623141391344935,"70":0.12109419898560388,"71":-0.13566801653630914,"72":-0.012015347823589453,"73":-0.03570641951522889,"74":0.0832075367346229,"75":-0.08956888622298399,"76":-0.1003382159385804,"77":0.0015577673302730273,"78":0.12027743864306539,"79":-0.0504860607503281,"80":0.10557548098412062,"81":0.0038998904671083763,"82":0.08676744921034452,"83":-0.16467991448963015,"84":-0.07180260766361649,"85":0.11076553846552006,"86":0.11320321003235069,"87":0.08663940616687928,"88":0.13137418910820314,"89":-0.135315738466695,"90":-0.17958040474284534,"91":-0.12069537160852242,"92":-0.08195660267490623,"93":-0.16613162834484585,"94":0.06800818973101633,"95":0.147035483465237,"96":-0.09885635694258105,"97":-0.18660116969091747,"98":-0.10833375237232044,"99":-0.030579616830859056,"100":0.09721009836220561,"101":0.022050271299345964,"102":0.12211094276082322,"103":-0.010172804790810267,"104":0.1738880261558414,"105":0.037986569564647854,"106":-0.11237657343973735,"107":-0.06707323439091838,"108":0.05424715727916271,"109":-0.15877674940348158,"110":0.16273249683066351,"111":-0.09412934995554492,"112":0.13361618777049297,"113":-0.0023058217859802674,"114":0.13978800267638017,"115":0.006407843865827992,"116":-0.04997737994351917,"117":0.1086319898568886,"118":0.19299943177963394,"119":0.044372210187250044,"120":-0.030125234686226198,"121":-0.09196349964694295,"122":-0.0017370341335190584,"123":0.07056477730734645,"124":-0.001852158584701753,"125":-0.19828200835829649,"126":-0.06299402414706787,"127":0.1689086329809106,"128":-0.16436865063396947,"129":0.14060086590841722,"130":-0.0033520955361981504,"131":-0.08142805622277881,"132":-0.13189028049991383,"133":-0.13140134739291442,"134":0.06993097805667768,"135":0.05948320976868584,"136":-0.045841789852070776,"137":0.12985649696319904,"138":-0.18903930252885204,"139":-0.1581615809941232,"140":0.18986468720565772,"141":0.14090491344724906,"142":0.08265946144997598,"143":0.03612074445356341,"144":-0.10177085834376226,"145":0.09086995804314017,"146":-0.17376310665191685,"147":-0.1369649582783441,"148":-0.1680759435486921,"149":0.034416423207733846,"150":0.13558594346489528,"151":-0.18028400987773013,"152":0.1679925607943395,"153":-0.068260309260906,"154":-0.16113721503210204,"155":-0.008334763237867466,"156":-0.11226891555411374,"157":0.17520810213781268,"158":-0.1654110137855184,"159":0.13048594655671708,"160":-0.18168398987637527,"161":0.18862372707962033,"162":-0.1419669159459668,"163":0.02933723610145241,"164":-0.162027578153968,"165":0.04777169662693771,"166":-0.12197838867716566,"167":-0.18720027041849036,"168":-0.12969788661288198,"169":0.005556999319465001,"170":0.16910923922706297,"171":-0.04481051817347157,"172":0.14118565112463946,"173":-0.1385415230961639,"174":0.00853995504983703,"175":-0.022943369390273825,"176":0.16667569294806867,"177":0.053812297984508844,"178":0.15907095370671503,"179":-0.07616183059668197,"180":-0.0018090947603452486,"181":0.1919907472565811,"182":0.08858568123136369,"183":0.01791441151572596,"184":0.11637524291457353,"185":0.09556103786704102,"186":-0.053456306003906384,"187":0.1485131191928764,"188":-0.13698061775337214,"189":0.13940659451397425,"190":0.17110111158964908,"191":0.09464468275183559,"192":-0.0023911352815980183,"193":-0.1485615130726546,"194":0.12671461568273765,"195":-0.16833237951808497,"196":0.1419134304223044}},"19":{"bias":-0.08144418038747497,"weights":{"0":-0.15588134114974472,"1":-0.04894713058115647,"2":-0.18679479944486527,"3":0.1464485339057669,"4":-0.13456708853903182,"5":-0.13640413249834146,"6":0.11576931822222583,"7":-0.05147940471915461,